-4.151682289395117881e-02
4.365362627074311766e-04
3.309133271424764822e-02
1.804747492264421535e-02
-1.859738546170027970e-02
4.852637892475410338e-03
1.518472804794751552e-02
-2.816793957127337877e-02
3.362746949519217904e-02
-1.135376726500404027e-02
-1.733838260398067738e-02
-3.505221890852131678e-02
3.598417721651758078e-02
-1.489344714608211058e-02
3.861398476955390374e-02
-1.045896408135416414e-02
-7.456787496101765014e-03
-4.803340398521555726e-02
1.414653286070003541e-02
-8.688740696398973562e-03
1.068047125475205493e-02
-2.068346565050456845e-02
9.353463983899211465e-03
-2.901678405570934718e-02
1.153767488942930228e-02
1.986021540261618396e-02
4.001952230769003499e-02
2.526021255023604140e-02
2.682098500812951647e-02
1.373431596866990685e-02
-6.901105504873243299e-03
-1.485315935496170185e-02
9.800067143318486398e-03
-3.503831419456989761e-03
-4.634032233994590799e-03
1.526208856762647191e-02
-5.710551686768135932e-02
4.291024296327394967e-03
1.070037963166289678e-02
-1.131354188407365791e-02
6.995641573873455192e-03
-1.877139469522001725e-02
2.593392597550467707e-02
-3.054547663404531821e-02
1.150690694997874401e-02
2.629102719380020659e-02
3.616738064924217289e-02
-2.039698316075780685e-02
-2.224199077504263392e-02
3.320244068403730570e-02
1.992461245022073002e-03
2.485728099037470048e-03
1.315818926528058812e-02
-1.126574610238685430e-02
3.132390201515688338e-02
3.432381680019565284e-02
1.973945068867885219e-02
-8.496887384046645023e-03
1.060407256137384062e-02
-2.879747873897410895e-02
-4.717588505604099897e-02
3.890855026666716066e-02
-6.559527009651735900e-03
-1.132014329522644351e-02
2.289889092625581931e-03
1.165218035840884757e-02
-1.160118364670157873e-02
-4.079638920106439838e-03
-4.598711876266128179e-02
9.091093564362277141e-03
4.072124283948465318e-02
-3.504179619766658454e-02
-9.361702138983657656e-04
5.443662579624735515e-03
-5.638692725588361626e-02
1.032585783660923233e-02
-3.701450491027964002e-02
2.465049273451937889e-02
1.223882867847410176e-02
3.468985439610464822e-02
6.683999738750478689e-03
-2.011648366213615938e-02
1.150662327048838571e-02
-9.589529771323627647e-03
5.288458680092949192e-03
5.219268666639427685e-03
1.850539019051310879e-02
8.496856449693061114e-03
1.997868084262515234e-02
-1.590116948651400589e-02
-6.155483847432689087e-02
8.057345022745297444e-03
-7.177822180908012897e-03
-3.218854582655882035e-02
4.012353320136061163e-02
-5.604802886746480806e-03
-4.688937616762884480e-02
-4.176650075253980632e-02
6.619805407669806206e-03
-2.926365238227365481e-02
