1.222150210298207224e-01	-3.556364128273004771e-02	-5.147640315910407410e-02	-7.623942938149182169e-02	6.318325961740249574e-02	-1.360209537365256738e-01	9.058418883674387856e-02	-2.581779965735115506e-02	-4.431061055162251530e-03	-6.628140166659595225e-03	9.518814687336631108e-02	-9.615059071108303379e-02	-4.341707485157538654e-02	-1.237383590478932996e-02	3.872115425332946920e-02	-5.548901266545881034e-02	-4.278984995103646619e-03	-1.751230648504051302e-02	-8.213408125742765326e-03	4.031522708168469582e-02	-6.933133085143028396e-02	7.878890368779241371e-02	4.533751192589699497e-02	5.144056629144180132e-02	4.364067578586718760e-02	-5.215619107298116036e-02	-3.397064989691447184e-02	-7.092371812906055062e-02	-3.369902690179746307e-02	2.205155129276846829e-02	-3.340924872899221632e-02	-1.302073204633534369e-02	-4.564943077612719502e-02	-4.575922014630322970e-02	-3.503242460932177310e-02	-1.195555370730615533e-02	-2.599939814693633805e-02	1.164461690370922377e-02	8.932040331739436734e-02	5.288003236741926211e-02	-1.409752693398266463e-02	-3.888849826085882810e-02	-6.184852000178514553e-02	1.192330568948213598e-01	-5.036571686594854859e-03	-5.505926026015942748e-02	-1.396157087829040001e-02	1.354798435397815415e-01	2.332466777963102325e-02	1.110018797065429573e-02	1.621918963123715474e-02	-2.185497463089789566e-02	-7.538545555928644060e-02	-1.215916318069679668e-02	-3.412882352959849264e-02	9.520714399245623974e-03	3.614272091660721692e-02	5.891197845090161839e-02	9.759349331963236909e-03	7.163508706226502654e-02	-1.016983114491992919e-02	4.531691892769008911e-02	3.215684212040986756e-02	-9.837093568855240569e-03	2.744784659425987886e-02	-1.084498068491448509e-02	7.354301706853011433e-02	8.984427382971878207e-02	1.594213667201629103e-01	-8.676257424497361981e-02	-1.114846612930684988e-01	-4.872853888452435660e-03	8.850589528241130377e-03	4.658356146869175457e-02	5.593417000984112625e-02	-1.251361336738223973e-01	8.132961406715736793e-03	2.981842694440565295e-02	4.389767380138895336e-03	2.080630690065215366e-02	-1.793854661134220568e-02	2.104852259378761897e-03	2.671703372202015835e-03	3.053758056595538145e-02	6.365741798811863292e-03	2.436856615882851060e-03	-5.189427843354246089e-02	1.678859471662141889e-02	-5.389824748625471167e-03	7.457774158884698801e-02	1.117312561284726086e-01	4.421927378254128516e-03	-1.580213633768464548e-02	-1.316348199599709848e-02	-3.863152910777817653e-03	7.888182248709341843e-03	1.117656987729404201e-02	3.117146544731399377e-02	-3.924188391504520451e-02	5.927237602027603247e-02
2.701536338828981840e-03	7.037943654009908012e-02	2.275824785090356517e-03	1.991184436245193104e-02	-4.991717981130470300e-02	6.538597981643406477e-03	3.264377725730246288e-02	-3.692370481077929950e-02	-3.819744087947065520e-02	9.640952200906575606e-03	-6.838989566396004582e-02	4.089211517246219701e-02	2.400390943365991389e-02	-3.980554538406404913e-02	-6.466846497990926326e-03	-6.774295653251070914e-02	3.436709887457860269e-03	-6.008617853607559067e-02	5.405115835622242848e-02	3.028123695716907621e-02	-7.251488454614225115e-03	-3.197869165854206469e-02	6.680954711066065810e-02	1.359409468714470881e-01	-1.155302007024157362e-01	5.861178278758531063e-02	6.702663980180423309e-02	2.566959010918289878e-03	-8.743490172544467198e-02	4.126336800451990694e-02	-3.942128688687479912e-03	-2.497321757188509725e-02	-7.697115261832236655e-02	3.476804297886791628e-02	4.943596913271534193e-02	-4.719941507783759899e-02	6.849831319262111862e-02	-6.790263773431466643e-02	3.982157327226220483e-02	1.275456316583137122e-02	-1.379371824826196823e-02	6.452949459829386732e-03	3.138900573915172354e-02	6.488198084653636066e-02	2.257952974155748999e-02	-1.036320126763269796e-02	-2.048653867489925659e-02	4.998321831421290856e-02	2.980585956624401400e-02	1.487045155186712993e-02	-1.899126423993581503e-02	-1.420096798343037925e-01	5.046690286967409067e-02	1.341737066189667427e-01	3.387786920928305238e-03	-3.010289929495585382e-02	-2.013451076843775917e-02	-1.676684270816103167e-03	-5.713149226764617332e-03	-4.416780567610068681e-02	3.521369985960069119e-03	-8.449055096138650967e-02	1.691784970979158878e-02	-9.753338876330886614e-03	2.783400880879530540e-02	-1.656435975960456747e-02	6.516028250223396268e-02	1.447840944194126594e-02	1.597170139994604499e-01	-1.156022124821141639e-01	-6.549045197637949622e-02	7.624345209293713344e-02	1.454887696750213621e-01	-1.831187737534320167e-02	4.024312102244766154e-02	-2.152261127136535779e-02	1.026176590558170038e-01	-3.452768761987252272e-02	3.035103680576299243e-02	-4.160877506154516542e-02	-7.853149857728912442e-02	3.177767422589725110e-02	2.093926060849410353e-02	8.149223126334252665e-02	-1.144737139547920973e-02	-4.004797908995334083e-02	1.926796240675021990e-02	8.894392050565037497e-03	3.774653032918067787e-03	5.194048285709774136e-03	1.095054266354103661e-01	1.505719202389229142e-02	1.157389889335394551e-01	8.779031309411693129e-02	9.727195164100081726e-03	-9.046884048914191623e-02	6.576592556407168111e-02	5.290428950623658061e-02	4.331678088667063886e-02	7.925847041901531997e-02
5.369947062818053625e-03	4.727250803429364212e-02	-5.344574239981534497e-02	9.845188819604687447e-02	-6.359316897169151050e-02	-1.048166582738794816e-01	-1.053207555751343449e-01	-3.328055922445550402e-02	-8.740524326190576843e-02	1.206150392159985596e-01	-8.005383288901763220e-03	-5.475652266635231552e-02	3.947897035223849049e-02	-2.405529866121251109e-02	-9.805169626670921790e-02	5.850054673297329366e-02	4.163406299675546235e-02	8.040865579797402268e-03	7.055895586973322253e-02	1.413826356452600221e-02	8.745853256660464370e-02	4.174976753784383210e-02	8.325545636789880022e-02	2.876118261682670402e-02	-7.870715275098656705e-02	1.286075040089758315e-01	-5.836889739093971408e-02	-2.840652355389625475e-02	-5.865267337656301927e-02	-2.028207797139727764e-02	2.049683990712093673e-02	2.151449601931123071e-02	3.213443113267081680e-02	1.064032279730384029e-01	-3.255136697869752058e-03	-8.236965054225758864e-02	-2.975001550160246908e-02	-4.029061522913256893e-02	-1.030342827036705294e-01	5.766788208702760404e-02	-3.177397617943390762e-02	-5.619080181095185110e-03	-1.885042460050137883e-02	-5.899082307479987242e-02	-5.766148287817463025e-02	2.061955611190943033e-02	1.071013335222686762e-02	-1.126293110067053994e-02	1.208507427349521379e-01	-9.984307123078405011e-02	-2.100311065419158130e-02	-1.485023065138967903e-02	-1.706147449690875728e-01	1.197816653075802346e-01	-9.412016967273797996e-04	-8.459193466879617873e-02	1.060799054892768295e-01	3.898184692429765980e-02	1.806388510184352494e-02	-1.445375832797034070e-02	3.948359353131313670e-02	-1.149911620221450020e-01	4.843235892121197650e-02	-1.424183874905528106e-02	6.996737671827298923e-03	6.286755899100338052e-02	2.468228505725492475e-02	1.730162546058273965e-02	4.927740868030511256e-02	-4.849788854591235293e-02	2.006655287980893543e-02	1.132762066857402328e-01	4.339648451118206796e-02	4.708780875637362529e-02	-1.289102825019648214e-02	-5.853233182104562032e-02	-5.733182877616496004e-02	5.314323112298530855e-02	-2.355040823762873797e-02	5.760600541964655541e-02	-5.022366395304152936e-02	-1.155446844709915807e-02	-2.586396717328573198e-03	6.004266222482317755e-02	-1.570164487127040072e-03	7.751486481845084806e-03	-1.224692737618552837e-02	5.227917281674006496e-03	-7.683291894526765586e-02	1.408135967806497559e-02	3.179515020122169328e-02	-9.539136768220487367e-03	3.425520117161633127e-02	-1.558365236027529389e-02	-3.317230037666108605e-02	-1.373020999078880186e-02	5.509137205029834145e-02	7.393341465058836381e-02	-5.859416276631442683e-02	5.280353115768747496e-02
1.476837405431384587e-01	-8.514666936025269695e-02	-6.890027172803991906e-02	-6.513944825984528675e-02	-2.848864104337925883e-03	9.039621365519381890e-02	-9.312173047980409554e-03	-2.198032102808084032e-02	1.303690171918363630e-02	-2.684640432848280772e-02	7.564712742475365737e-02	4.032137690780752959e-02	5.531024480932827253e-02	-2.837204876531956160e-02	1.481734409061082336e-01	5.554343478147991814e-02	4.343518105407388058e-02	3.018233619653604843e-02	-5.251218056071065010e-02	-4.337606794724666037e-02	-1.367641406881668804e-02	-3.325422014153055911e-02	9.629271354331973495e-03	-2.521240533097985140e-02	2.749918571764708650e-02	4.245476829621556980e-02	-6.760390911039824979e-02	5.187731284785688374e-02	-3.197128707448580048e-02	5.810696580083628965e-02	3.177601469494350378e-02	7.462254588887996809e-02	-6.352602849008372188e-02	-3.156632307782214139e-03	8.743512345547661824e-02	-4.688244609595944995e-02	-7.907241187946455196e-02	-1.139574656233159483e-01	-1.510505672355975382e-01	-1.119086122075039769e-01	-2.677907465553615654e-02	8.608771964401593091e-02	-4.425567049765839756e-02	4.025293391019537509e-02	-1.431386831798517334e-02	-1.781462847676822461e-02	-3.468063652691310422e-02	4.256512036327530883e-03	4.299892624604063907e-02	-9.235748941554219882e-02	5.718008073409549391e-02	5.154838986656289090e-02	-2.072179453477709585e-02	5.446322529778774985e-02	-6.254068900365955530e-02	-5.531948251255266319e-02	-3.246717199159278571e-03	-5.782647954234584713e-03	-3.260748001470305940e-02	-1.822986890838584548e-02	1.190480733274866445e-03	2.721806224230474344e-02	-1.095564463267346966e-01	2.769847095667377426e-02	-1.437836654723387807e-02	3.550625021336515502e-02	3.797089230141301175e-02	-1.583794606150108752e-01	6.705593719143686238e-02	1.251711516748447994e-02	-2.690528302452980386e-02	-2.807835274009036226e-03	4.884724276629687917e-02	-2.779660374003537979e-02	1.435774958834608039e-01	2.409658007840151037e-02	1.491411520355719333e-01	-6.327279541691253895e-02	-1.101934829785220504e-01	1.808186232103319371e-02	4.408533074992074946e-02	1.572766663716334765e-02	-9.687246280423711386e-02	-1.896157757195975416e-02	3.057947357355483495e-02	-1.505537051168375808e-02	-1.989223762266872919e-02	-1.511799877397141181e-02	-6.630040526364869291e-02	-2.134027677939501558e-02	-3.974516787436029736e-02	9.574162151119584852e-02	-2.157669933540333138e-02	5.124367857383966413e-02	-8.725422717416936313e-02	4.926628329471968021e-02	-7.705666459546615943e-02	8.177094782389766892e-02	-5.511545114518174096e-03	1.407706375362730022e-01
-4.688177997523972074e-02	4.138349166744503989e-03	1.838175780784978498e-04	5.679738752784225381e-02	-1.114303931684576185e-02	1.754650590984227227e-03	-1.336919617425143259e-01	-2.979655334153562957e-02	3.217947533763350874e-03	7.146448835892862950e-02	-5.422773190922708722e-03	1.413502548125354641e-01	7.674216014293354371e-02	6.284802786796057916e-03	-1.659383807037356218e-01	-9.458741143934530637e-02	-3.920924505330321969e-02	9.751399169238877951e-02	7.252203052971636227e-03	-1.141376612947111874e-01	-1.902983761566908946e-02	1.058269076903256972e-01	-2.830399567220388476e-02	-2.082021855208062572e-02	1.102072159807848672e-01	-9.627121467607168900e-03	-5.452543213162475838e-02	3.268267210857513788e-03	-1.725293327824820727e-02	-3.330657679178348346e-02	7.621781944985536739e-02	7.424022953386161250e-02	4.251035555952107498e-02	-2.931231642467315313e-03	6.986535941503843605e-02	-1.409245633667470174e-02	6.538665002917216917e-02	5.775848850135339302e-02	4.022447571756143647e-02	1.133275879881342624e-01	2.300719335096144957e-02	-8.483850777924815956e-02	-8.567719585471196553e-02	9.948133524267348260e-02	-2.708127003088888970e-02	3.993478941054509450e-03	-7.410107141218907900e-02	7.205158524034691037e-02	-5.810749943225597056e-03	5.961612672777349964e-02	-3.180629699501449220e-02	6.297864205814433791e-02	2.944123655371913909e-02	-3.368219912592114451e-02	4.132979412663553842e-02	-7.634416625906806364e-02	-5.971450830214568295e-02	4.683119745013418489e-02	-4.279662863540392020e-02	-1.369476280214138378e-02	1.351376629408206076e-02	-8.467184924092932552e-02	6.285425629942978376e-02	4.246953896852279781e-02	-4.737072193472845541e-03	-1.273854779173856124e-02	3.422544885257012420e-02	1.040094270980164298e-01	8.357532561354165390e-02	-3.552723981882513482e-02	1.668646739741429935e-02	1.737976338875956567e-02	-1.186391411754117095e-02	1.037189642147311741e-01	1.355306192538926861e-02	-3.611195987246280936e-02	-8.682715085212354411e-02	-9.885873088502254713e-02	1.714196784811140156e-02	-6.325124633545792241e-02	2.462540235575463865e-02	-5.063480646927124434e-02	-5.236180275244271820e-02	4.579898171779193949e-02	7.921090123319877996e-02	2.975332453608199590e-02	5.590824892766339815e-02	9.335148234468806927e-02	4.758955045366487085e-02	-4.357702919175357459e-02	3.648195405900191840e-02	3.009842334754778484e-02	-1.808465922340641088e-02	4.976298827972244765e-02	-1.194058847082814373e-01	-4.438155518468183541e-02	6.152883882752684802e-02	-1.004123372917085921e-01	-6.738036010424143518e-02	1.797722981573254483e-02
-7.070172027449009300e-02	3.027175125960951309e-03	-6.713339971345518020e-02	-3.115813171702279741e-02	-1.688338763987716137e-03	7.687347582386516373e-03	-4.261029002273479527e-02	2.327440612361763791e-02	-5.752167286704675669e-02	3.984186564112108392e-02	1.085561234621635340e-01	3.406740758943970632e-02	-1.501465596693353846e-02	-5.737318314454741691e-02	1.331213395571037399e-02	-3.576751411764711452e-02	-4.099711600556288360e-02	6.529706309018798449e-02	-2.039135322636676678e-04	7.056813942804013307e-02	7.741542696021139203e-02	-1.839269291783522317e-02	7.270217496540565000e-04	1.240161857803665918e-01	4.743026737882780758e-02	2.843071542627185685e-02	4.848092012255403316e-02	-5.181710147668749933e-02	1.848436675540349877e-02	7.275948054936345888e-02	1.000144253515568987e-01	-3.664283010911601607e-02	-2.052338805836975352e-02	2.508555059226529743e-02	-1.297861836793227572e-02	-3.383067036054358823e-02	7.792710199113747627e-02	-2.226992796435159350e-02	-1.095951786632961139e-01	3.094461278087139861e-02	-2.752066342394719409e-02	-2.988244051221595338e-02	-1.090764043854506454e-01	8.007944262508322197e-02	-1.364609644899035801e-01	-1.163507443356621429e-01	-4.089133246636399849e-02	8.521030159718948060e-02	9.195546232071069581e-02	-9.114589437313450060e-02	-1.134757956135678050e-02	-8.867758645481384205e-02	4.887351172449410502e-02	-7.719400671223952681e-02	-3.033835570091864692e-02	3.527344463648087597e-02	-2.509450019523092046e-02	9.001289192159515895e-02	-5.691262224890065308e-02	4.186736244439000915e-02	8.258511574866739258e-02	-3.502784069577115356e-02	8.254667175971532045e-02	3.898562576344332536e-02	-9.520965317160058616e-02	2.219063157771672401e-01	4.567720207933157611e-02	8.351752779312552472e-03	-4.737955961331889038e-02	-1.474269165656451504e-03	-5.470301365104233288e-02	6.140817591521766788e-02	2.106074745590297628e-02	1.029422817896120390e-01	4.593082170899265293e-02	2.116121489947414558e-02	4.728823325581291148e-02	-2.651859326894502947e-02	-1.946678211752902662e-02	4.036424522534108605e-02	3.989224262565764512e-02	-2.262800216309929571e-02	-7.233152426155284309e-02	2.990476321991628397e-03	6.193402451908841533e-02	-6.017640741081750969e-03	8.755991706373662808e-02	-4.971251485228179307e-02	-4.246354105938224266e-03	-1.357656253820073711e-01	8.192807053222643174e-03	-2.409537802360123271e-02	3.532839664780827033e-02	1.223844727159538598e-01	-2.628055108843818308e-02	8.730968656865528699e-02	6.919079855928593481e-02	8.556364116357424721e-02	-3.036575480997644183e-02	9.890642586316286677e-02
-3.340599366099269996e-02	2.829971227428008940e-02	-7.593271514715864423e-02	-4.422896690692998400e-02	-7.106188582223176009e-02	-3.302454668067988236e-02	1.017510043459175090e-02	1.413225256098172254e-02	-1.005971561530375202e-01	9.261345060393585960e-02	3.028790204951259390e-02	8.086926110223950637e-02	2.048834398890807262e-02	-2.857533812544277990e-02	-1.389108553739718532e-01	-4.484621305466664903e-02	7.635448979094269784e-02	-2.764858851638229975e-02	3.643263406269808130e-02	-2.864299950662860597e-02	1.684918363702769470e-02	-9.248669485244673250e-02	6.065461090846129000e-02	2.016052304748015486e-02	4.277351274175009849e-02	-1.754530244284751737e-03	1.916370181104404963e-02	-2.281555158497574134e-02	2.464463223223230248e-02	-9.564190286682805464e-02	-5.585544681805149764e-02	5.172607506733997718e-02	-8.263455027895197716e-03	-1.019311316130189909e-02	-6.667658754648849405e-03	1.772210995020464738e-02	4.230803014436472845e-03	2.756217289419335068e-02	-5.927824086073055221e-02	-1.342849913163107235e-02	5.379709628969679691e-02	7.412897110272710643e-02	-8.204150865668516368e-02	6.997200435417536002e-02	-6.792344203006821235e-02	2.398384425975565865e-02	-1.345281961235162416e-01	-5.014576171586986736e-02	-1.297299671374166179e-02	-3.411467558009865370e-02	8.103618709625219629e-02	5.062418912649520319e-02	8.142848570232891214e-02	7.761125492739630316e-02	-3.839647607596367862e-02	-3.969015636796352497e-02	4.941186798984420481e-02	7.521361135330323182e-03	-1.577531783057485246e-02	-5.646743527096445558e-02	2.721287766013837442e-02	-1.879934494900865616e-01	-2.375225096256941559e-02	-4.917332850148212198e-02	3.922084905381401781e-02	-3.410183268369077619e-02	-1.073082600535282816e-02	7.987970936667908306e-02	-2.720105197526897362e-02	1.207774839632428168e-02	-1.375138974783742252e-01	2.940916710014756033e-02	2.328750839145128995e-02	4.564325288468348840e-02	-1.412579575110110321e-02	9.977142550935583221e-03	4.415524709587968083e-02	-1.906105591583875936e-02	-2.303513043758562292e-04	3.585713882971899944e-03	1.784432572810834214e-02	-4.377718103206607730e-02	-7.708705003687675583e-02	1.514619773271232428e-01	1.056870862013095241e-01	-8.472297689179503211e-02	1.277478462638622844e-02	3.120500999354084565e-02	3.093003692724487913e-02	1.751237944793418780e-02	-1.091597853533884943e-02	-1.678538134346018937e-02	-2.248552458082494696e-02	3.144064980150789584e-02	-4.378027405435765129e-02	-4.170957708560785009e-03	8.978045880643956145e-02	9.965308346894309610e-02	-7.161462762423169426e-02	-7.536135741578220935e-03
-1.712655066849146784e-02	7.033411760759088194e-02	-2.442881112982293185e-02	6.926469105650440161e-02	-1.430032895986196005e-02	-1.733837735679002751e-03	-8.789546332823233721e-02	9.324961741642269486e-02	-4.375885909357027370e-02	-7.792669634388724176e-02	-2.335002245208048915e-02	-1.102724118874167936e-01	-2.665093460875288256e-02	1.627411157989935159e-02	-1.007092075152071428e-02	9.440231028916162836e-02	-1.169554612760214871e-02	7.972173841435364894e-02	7.365654378609564831e-03	-4.463912432163286495e-03	-1.256521041253023108e-01	6.741016848415200269e-02	-3.575640353763969576e-02	2.348516820391491344e-02	-8.163322927578849086e-02	3.618820063396675953e-03	-2.064768302864705696e-02	-1.523734596386421523e-02	-2.602012682476101749e-02	5.198729092382057410e-02	6.224206805049681268e-02	5.175162514143855086e-02	1.856062430124235663e-01	-3.162510517594538384e-02	-1.820117082423000632e-02	-6.977387011375338344e-02	6.361789333509383637e-02	-4.154449130805418916e-02	-1.621234356004222221e-01	-5.993555644685542166e-02	1.138972623434993548e-03	7.058274860953019092e-02	-1.085688858290201897e-01	-1.374773334818053458e-02	-1.600780882258034249e-02	-6.034075788579767313e-02	5.669021853331301236e-03	1.453665806502559346e-02	3.492751418498964838e-02	-6.635048863482208292e-02	8.755120494073577453e-02	-1.553590454517117829e-03	6.516323779193940180e-02	-1.733179620388005521e-02	1.196557762032047882e-02	-6.352143353671643733e-02	-6.712496045276675205e-02	-3.544528775402076143e-02	-9.363857271846765321e-03	7.947149177406973367e-03	1.221594810381692459e-01	-9.324156376021770776e-02	-6.034355636993292415e-02	1.054535312565565708e-01	3.438655350925337584e-02	-1.150326931823960896e-01	3.694366255892309742e-02	1.585147875354142588e-02	-9.039868002620464471e-02	-2.751372323899402977e-02	-2.917371896523280814e-02	6.643045082285826963e-02	5.468680019838855627e-02	1.557182233936321757e-03	9.734848526696497639e-02	-1.690465549569307793e-02	-2.367382319995942758e-02	-7.184901829401436901e-02	2.242234117183680014e-02	-1.361342261670576981e-01	3.399469491549663575e-02	-5.015605504182339691e-02	-2.881733663613612537e-02	3.603765028933035575e-02	6.519383949448570581e-02	-1.163967329904365411e-01	-5.971285644451632818e-02	-2.164301304320454238e-03	-4.680943348739175641e-02	5.912353868252768346e-02	-7.781429170442578924e-02	1.461345616131809987e-02	3.042331468843039594e-02	2.651969476833728259e-02	3.529682190254330998e-02	-6.751411109280544554e-02	9.497670877425418157e-02	-1.189877447639769992e-02	3.838956965913706970e-02	2.945558497040627545e-04
7.548202172687001887e-02	4.476072075445151899e-02	-1.054720128495892639e-01	-2.324796443277241456e-02	7.920777973987526421e-03	-1.695809490372488307e-02	-5.368044335373943488e-02	1.249184850131460495e-01	-1.077417814060806570e-02	9.747575408144021347e-02	-2.200500246099866553e-02	-3.855123475042633585e-02	-1.718522335151598940e-02	-2.271173817443327206e-02	1.112076740819057802e-01	2.212875305155020955e-02	7.216833729335954406e-02	2.019838781789451421e-02	-2.946100107955774983e-02	4.906329412564587600e-03	1.469185683716667072e-02	6.176101128615731073e-02	-1.372733997387773006e-02	-1.683245984009405088e-02	-6.994515377518231714e-02	-1.713258773769766458e-02	6.176517741151816426e-03	9.486618955964965655e-03	-1.927123222056370197e-02	-4.317220426318793547e-02	1.496365780169922263e-02	4.286014996945725075e-02	-8.127260460667758146e-03	9.487925178227532910e-03	-4.988277344244424795e-03	4.159476936640212064e-02	1.318179124186751212e-02	8.824485674375203217e-03	1.631476627770718155e-02	5.192682014530235896e-02	8.327533093653584351e-02	5.129340870433353461e-02	1.583025303741678741e-02	-6.323812929286630469e-02	2.701849585712924953e-02	1.140279531457083495e-01	-7.286382322882592466e-02	-4.451526761953178424e-02	4.007676498646753176e-03	3.441152547666175010e-02	2.917632059984652873e-02	-2.905958855545719838e-02	-1.154443042284278818e-02	6.782799297107425240e-02	1.673003898638630513e-02	1.158093650604103825e-01	4.576064948794857784e-02	2.559116116486126816e-02	2.874898873330778565e-02	4.323460003799041267e-04	-2.305743330641127700e-02	-1.704613630235601862e-02	3.086627775267843793e-02	-7.313937373289566835e-02	-3.087446476456935651e-02	-2.778906109115725220e-02	2.357998309283255642e-02	-1.286897167108103437e-02	5.900461942001534316e-02	-5.312790324075945727e-04	3.300883418354403492e-02	-7.449339543774233241e-02	9.522490964546337366e-02	7.782564451885871926e-02	4.062668209282007531e-02	2.905490062963176495e-02	6.079412216020062265e-02	-6.048934128028281981e-02	6.148090287237545099e-04	2.173882952699354026e-02	1.276350115843035392e-02	7.434341767704158443e-02	-2.611146510222636663e-03	1.153861143675072136e-02	-4.937350271981317401e-02	-2.546132245266303704e-02	-3.972385016791448592e-02	9.340279309684115794e-02	1.457653186860117600e-03	-4.824953521751211560e-02	6.555690171814032574e-02	-1.733828833350132062e-02	-1.703367437957906128e-01	5.137304146720387404e-02	-1.178794217184160609e-01	3.680050247512726275e-02	-2.444483496977273990e-02	-5.548173732212811210e-02	2.504999679817115563e-02	-6.720787599311879579e-02
2.726308297341918218e-03	1.152311858274367509e-02	1.431910941612542232e-02	2.864142992194687251e-02	1.116040612989878042e-02	-5.125887261107217596e-02	1.009117875069064640e-01	-1.686207505623339709e-02	8.121989866418148629e-02	-1.834912471848600471e-02	7.783223709156261716e-02	8.444058162633148734e-02	-8.513724159125611590e-02	3.028224704787253752e-02	1.689070659371414568e-02	4.841220049068906822e-02	-5.808433148943958728e-03	5.055720378902798379e-02	-3.342050844309466667e-02	-6.091789712052483874e-02	5.094127368395814925e-02	-1.954658285831217118e-02	7.292533716561619417e-02	5.720755033051124622e-02	-5.983528174694663360e-02	-2.200890064472113897e-02	-4.340345995899678316e-02	-6.718036994356400837e-02	1.068668042276472128e-02	-3.616084717771055751e-02	1.006363318520211853e-01	5.953895921880307529e-02	-5.678549094934139813e-02	1.908603039310594746e-03	-9.387852067665949582e-03	-1.014889977633609691e-01	9.219241744489312107e-02	5.291915249380719360e-02	4.695498146776400095e-02	-1.629800206478277877e-02	5.864544696244602257e-02	2.214925825065259515e-04	3.521196354116891414e-02	1.261606691793997204e-01	1.157057257275152643e-04	-1.001855082487002196e-01	-4.326000438518074614e-02	5.128744643723678887e-02	8.677264122030899085e-02	-8.992330481580335100e-02	-1.209277277810424239e-02	1.193052359296686502e-02	1.562920513549220791e-02	6.052293113826795468e-02	-7.679682402218085402e-02	-4.875699168877531409e-02	4.589218216847150422e-02	2.782785952432245344e-02	1.915169424686283955e-02	8.549238323691316088e-02	3.935843400059670788e-02	3.495919396896452879e-03	-1.558532454528666240e-02	-7.023887766260693277e-02	-7.546693622924373346e-02	-2.196961090769824695e-03	-3.259865218921933778e-03	-3.560867347206775335e-02	5.167261203987064816e-02	-5.755598512609941264e-02	-2.174306459442186534e-02	2.310590240553878419e-02	-4.884581132679194360e-02	-1.365616806946848005e-01	1.217578471498155790e-01	9.802920896197419784e-03	-1.279071123837668411e-01	-4.255424585642615665e-02	1.383401868788393559e-02	-3.632040797265339432e-02	2.837074252771084465e-02	-4.246500835256811213e-02	2.014347176283875617e-03	3.793954690087945978e-03	-1.563688440657809778e-02	-1.718157626942771327e-02	-1.675375845422287730e-03	4.881835945959520778e-02	-4.300350076992965481e-02	-1.408339461466336096e-02	5.182358830871114375e-02	-1.319269496297467356e-02	2.809717832486262334e-02	6.512971947606596701e-02	4.619839879338256267e-02	-3.292179081608928061e-03	-1.003733101843732184e-01	2.463916811724254502e-02	1.694552333105291478e-02	8.213135123443401214e-03
1.965762964350977957e-02	-1.406117546676134977e-01	8.304520542119418064e-03	-3.302962356401702854e-02	-7.392776485867189051e-02	-5.351051526463088820e-02	-5.997883286369450756e-02	5.322167613874195791e-02	9.565664431016470542e-03	9.515263356352507418e-02	4.821393152025756079e-02	-5.527425340208524940e-02	-1.061194366482868107e-01	7.502123052548560767e-02	6.369824409744671845e-02	-5.747747262706752285e-03	3.790932696812667618e-02	-5.368890604793324917e-02	-1.228033008667066689e-01	-6.104542000724604706e-02	-2.643911478574750840e-02	-1.733657754194486977e-02	-1.995608435113939427e-02	-5.879824631357208342e-03	3.085809312816073860e-02	6.965360159588299127e-02	-2.479210135882097335e-02	1.001859129049778030e-01	-5.484516788265064724e-02	-3.884304393003361333e-02	2.886636361199977976e-02	-1.060015601243511144e-02	6.190684481449132415e-02	-3.398381611921701823e-02	8.000775439027466018e-02	-2.196243844718172945e-05	1.864772586120792552e-01	-2.865703760271946093e-02	-1.813612522626021489e-02	1.847123474230348561e-02	-1.288637877780575425e-01	4.707079490954984430e-02	9.001073557060429095e-03	2.789416730487749921e-02	-9.707168290854664705e-02	-1.075365462286391460e-01	8.868476769752338396e-03	8.210764874757406351e-02	1.083845890356118086e-01	-7.617169548618966946e-02	-6.057089836560539120e-02	-1.722143667924967703e-02	-1.234575367611070174e-01	-2.598219546311921618e-02	2.706722814386004414e-02	6.998377769171697238e-02	3.843501777605273177e-03	9.984371688953798396e-02	1.698769044460674699e-02	3.160767686688623762e-02	2.346380144893710218e-02	-1.618187165936714120e-02	-1.214030919235589701e-02	-7.684887566150093658e-04	-3.892494421009461830e-02	8.459941982612202011e-03	9.087370674772523443e-03	-8.320563267194069912e-02	1.943761667700573056e-02	-5.555973231235839666e-02	-1.463373813785129596e-01	5.214987407539001252e-02	8.954563217383104679e-02	1.327544320167325931e-01	1.278672839329306199e-01	-5.870624327882862509e-02	9.360501615388873431e-02	4.666097425530012222e-02	-1.235731551846217108e-01	2.653410298981575752e-02	3.107357113326723527e-02	2.308077531180864270e-02	8.559775298806526767e-03	1.024372980160955827e-02	8.907923731819915314e-02	-2.761050278128736324e-02	-2.473596738664973760e-02	-4.568604134732784372e-03	3.486120715673252535e-03	-9.231824541153868524e-02	1.226388194066480447e-01	6.789918808320589971e-03	3.868547958525442310e-02	3.507213282865308257e-02	-3.905332886297469691e-02	-1.706956959623031136e-02	3.656046988599370023e-02	3.742879394202861670e-02	6.318171725993074195e-02	3.896525408289943510e-02
2.079695927655139318e-02	1.143462636824360834e-01	-9.481995215790386955e-02	-9.165784686213281074e-02	3.371238204865210919e-02	-1.548676067623476829e-02	-1.124676955080526480e-01	8.589804538750400015e-05	-6.383920518005382905e-02	7.301961255497091408e-02	-2.501108667023913337e-02	8.332413392505229333e-02	1.711814043120027818e-03	-2.120099351551679983e-03	-2.547005571152935119e-02	3.270052973999956758e-02	-1.274928116892360130e-01	5.200582827606399505e-02	-3.252219477363465366e-02	1.104205417341718592e-01	-4.571391011868921467e-02	7.866429482558762176e-02	-1.517780050850748019e-01	6.944891496783188456e-02	7.595601589375622527e-03	-2.696017160513682759e-02	-3.385520730080075757e-02	-3.196761026358044960e-02	6.161878119521015454e-03	-1.629271297127298998e-02	-9.664730100893936804e-02	-8.504154304579835842e-04	1.229289816085323978e-01	5.707623447026162825e-03	2.047203691983520354e-02	-3.649838266943093712e-02	4.850576791096432305e-02	8.386577735353194230e-03	-2.151173921320731139e-02	5.987376440963043667e-02	-5.628648559862397399e-02	4.811567834566436892e-03	1.039773091128343846e-02	6.182275162003551296e-03	-7.857953624579366858e-02	1.390114017352927882e-02	-8.164210093472491769e-02	-1.150157054469689438e-02	-3.138778493034675987e-02	-3.089774974161742585e-02	-2.587248899303747074e-02	-2.891337009346315115e-02	2.982103185041978799e-02	1.096896781665940707e-01	-4.270343870459945151e-02	5.830085941172561369e-03	-3.276789108025810610e-02	1.090059855022521527e-02	5.834791966969597732e-02	2.346861807483793111e-02	-1.369784035633215755e-02	-6.908023029005874727e-02	-3.301971782351463547e-02	6.593757511400960211e-03	4.876572653965658560e-02	-8.488052831780049101e-02	-5.159252587742531315e-02	-5.118272233294513668e-02	-6.760696538631039143e-02	7.030712346080637831e-02	-3.026551951095198673e-02	1.338975305075187916e-01	-8.255952485094590620e-02	7.070080304068626642e-02	-2.757900342862922710e-03	-3.196858723924023149e-02	-3.125883532617886040e-02	-7.275379068530624105e-02	-8.525888714630505683e-02	-1.067654452131899454e-02	-8.093404567187401089e-02	-2.631655392001387402e-04	-8.622819933910765011e-03	4.533972905688400667e-02	7.169494935872247317e-04	1.410952687133064376e-02	1.647844067659917991e-02	-5.990197798901877868e-03	8.545031443344784303e-03	-4.711258160405767947e-02	-2.180883614611821286e-03	1.032160455773839247e-01	5.172887624903393065e-03	-1.730426050833912613e-02	5.131541721800481765e-02	-5.622964389848361319e-03	-6.284062353874502599e-03	-5.494327588908300836e-02	4.150171042842322466e-02	-4.367453764004144284e-02
-2.800705167132684983e-03	3.672295141320439105e-02	-1.011323995849887705e-02	-1.938706016281331254e-02	6.399053739469050912e-04	6.308707607795253913e-02	1.185835204710677382e-01	-1.352342387132089881e-02	9.857113884982638199e-03	1.190344120960982466e-01	7.320132697261652610e-02	-1.691966569260072370e-02	-4.980605897628288814e-02	-2.437362494673249794e-02	-8.067031128844642796e-02	-2.800373546109259301e-02	2.300112558331915760e-02	-7.536372771855245683e-04	4.017074718707377284e-02	1.349674145439202361e-02	-2.876886609407489775e-02	6.381827202075864014e-02	1.181669637815113520e-02	3.739539217509434826e-02	5.156983127466475275e-02	1.807443657543712084e-02	-3.306028491503643779e-02	3.705973794029904234e-02	-1.737606641333785983e-04	1.597678847287306303e-01	6.953726529352469155e-02	7.646100614435553944e-02	6.847238114803190501e-02	9.520012092014407817e-03	7.948478200700533070e-02	-9.905120195679319867e-03	-9.922080327063194025e-03	-3.442179111381307027e-02	2.537199475409056271e-02	-8.000222498047186714e-02	9.635037842957803328e-03	-2.969235675345916967e-02	2.325690670239266913e-02	-2.175012291676498358e-02	1.001767044966977022e-01	2.599368737664730505e-02	-9.732136761849452533e-02	1.158044863380203598e-01	3.705708674797489853e-03	-6.322599978744151972e-02	-5.885426715573519735e-02	3.161941571452737271e-02	7.733098767243175298e-02	-2.478377198540031995e-02	-7.928808989671549956e-02	-8.944036374415123558e-02	7.038794514211504927e-02	1.022566179157905347e-01	-2.682084470969577084e-02	5.156667499508006680e-02	3.320398532939937419e-02	-3.052677505347202447e-02	5.684542501272490250e-02	3.278528986969114767e-02	1.729201979198566677e-02	-2.353735604762047587e-02	5.536960254454970087e-02	-1.429532243298466468e-02	3.628639292043305681e-02	6.470836459744181736e-03	-9.735835602650796949e-02	6.964015560983974167e-03	-2.045591035532827798e-02	1.863745251936904049e-03	-2.713538289450375535e-02	-7.726423955706267221e-02	1.195460240348628078e-01	5.069507320640486564e-02	4.258646907115720692e-02	8.211936315072911052e-02	1.929330015853682190e-02	8.297665753508652250e-03	2.037550857264759999e-02	-1.015743638472371424e-01	-7.020298903359574461e-02	3.932720013177498641e-02	-1.142685194064830753e-02	-7.876239798722403651e-02	2.557462844863143611e-02	6.695781167005644685e-02	7.996297905387110549e-02	-8.585018098161345187e-03	-4.239324062647303187e-02	3.002151724039622133e-02	-7.496734055942825582e-03	-1.815082985124812087e-02	6.650719766765368635e-02	4.618288564934300983e-02	1.522395508669400696e-02	-9.824593718186873381e-02
9.031203084979481932e-02	1.004806392092617434e-01	-4.356867557456859524e-02	-9.895098310955129095e-02	4.797872758853553854e-02	-2.792605907554022299e-02	-6.583125786625997067e-02	8.983423293767381357e-02	-1.029225873707273892e-01	4.913691728960709743e-02	-6.091060432076789155e-02	1.071101594359969711e-01	4.967431660064238093e-03	-2.512059509288527229e-03	-2.087507129977332967e-02	4.174660141604188968e-02	5.981230489468648132e-02	8.082535010010553911e-02	2.186723345418238248e-02	-2.109922266136623689e-02	3.257558101231210895e-02	-6.386498742609651724e-02	5.119453622403751653e-02	7.200643190272165706e-02	7.243236218096277268e-02	-5.216928572932778840e-02	-1.435238294352243760e-02	3.244576515117288812e-02	5.813312861144294928e-04	-3.311072022634502926e-02	2.346097709676439255e-02	1.391203397994299207e-02	5.146726987648685137e-02	-2.914985086450715829e-02	2.300829938798398464e-02	6.494538320242926148e-03	8.117269909737538647e-02	-6.079782502238249842e-03	4.210526613998293206e-03	5.938922805239376171e-03	7.086541028464361965e-04	1.281736993660460844e-02	-3.457077751317593622e-02	1.837698795407723962e-01	-5.597663753844673434e-02	-8.600066156738386813e-02	-6.942304523116331338e-02	-2.660186456801443000e-02	1.803281986883028751e-02	6.596717435162406662e-02	9.927179086958000387e-02	1.323038131082848214e-02	-1.535963561671201127e-01	3.152749933262138232e-02	-9.656058618765918367e-02	-5.132220928887417516e-02	-8.670005955494877736e-02	3.118706954179893340e-02	-4.284762360039285484e-02	6.414574448843297916e-02	6.092877713628390424e-02	-4.199210781369029644e-02	4.252512322867041221e-03	6.026248317983418090e-02	-2.435511878399026012e-02	4.567977664542147848e-02	7.117355376035684918e-03	1.726287363506565781e-02	7.978184579732783277e-02	7.063147191797324032e-02	2.202451306878469919e-03	2.757553258800359702e-02	3.652149306668519418e-02	-9.312224046574826830e-02	1.305309064327479229e-01	-8.659984170640899759e-02	7.732114534542613993e-02	-4.374899429871721007e-02	2.196891714498570500e-02	-2.987274552320372950e-02	1.387906087206331428e-02	-3.293568327713302518e-02	-1.305236949326938345e-01	3.054483308533733829e-02	-4.389225595072138858e-02	-4.278684304737460226e-02	-5.535644654275370669e-02	1.082311559728882933e-01	-4.600827921521468550e-02	2.810213546217370933e-02	-2.772205075009505360e-02	7.988026426204394848e-02	-2.627391193563242272e-02	-1.260997428649865970e-01	1.196236492372898669e-01	-6.188207779695908961e-02	1.080474129755123469e-01	6.970068157588098223e-02	3.214505892336855936e-02	5.656991629711968436e-03
3.927806036016050911e-02	7.216312105994233950e-02	-3.835693623928513457e-02	9.857237183226916742e-04	6.508460212059533068e-02	3.492555544241076736e-03	-3.453125073409749057e-02	1.034085074348241179e-01	-3.114182506213199891e-03	5.380515235558427792e-04	-3.393619270623975115e-02	-3.526415887128812876e-02	2.707734575433527399e-02	6.656111710887741006e-02	-1.519345574866217408e-01	-2.738250237488186120e-02	6.289049173355319711e-02	1.729787323338167482e-01	1.138462698542498375e-01	6.149764477640094068e-02	7.356851725925996066e-02	-1.862625099517596639e-02	3.771636400599259059e-02	-4.901403687071462928e-02	-4.013258418211814588e-02	5.282813111799470641e-03	9.993314366232790291e-02	2.630341599048368825e-02	-2.448641612746992133e-03	-1.830432369391781985e-02	-6.980837813456081120e-02	4.464435386847284692e-02	-2.609788127703644572e-02	1.671270545885067405e-02	-4.802233167457300306e-02	-3.250122307326769756e-03	-5.026012105746371222e-02	2.720570732982343504e-02	7.008120044619013667e-02	6.276214758755541134e-02	1.193315150136793068e-01	3.104552684292162176e-02	1.241208928887755671e-02	5.094709853996977345e-02	-5.826432179883034301e-02	1.059247487025096746e-01	3.158103978543305712e-02	2.950264131229100579e-04	-3.564051575964007068e-02	9.921868021399557827e-03	4.847170581570979520e-02	6.653296899781023510e-03	1.284393880725431814e-03	-2.791956617704894564e-03	-2.181673022106114107e-02	5.325282785899208837e-02	6.850563773804760337e-02	-8.139670141175270324e-02	1.315261426360310416e-03	-4.992505748312509734e-02	-4.370820015492314636e-02	5.682645559809049000e-03	-4.602520621060202100e-02	-1.745625721598601243e-01	3.648438678858444140e-02	6.717112415430288863e-02	1.257105250765011561e-01	-2.074616344805659679e-02	1.169053276808307423e-01	-1.574099983210748288e-01	-8.827364714883943753e-02	5.417609912523426580e-02	2.658415171787840633e-02	7.224469503862882003e-02	9.270642317449821757e-02	-1.418875514714478155e-02	1.131440730247647852e-01	2.447641014245887509e-02	9.151350426005690208e-02	-6.953544175014272910e-02	1.337503003867216746e-02	-1.123817607790483959e-02	3.930181889119536282e-02	-5.491125187211364812e-03	-1.992457176963616239e-02	-8.196941182283494498e-02	4.501445483133796610e-03	5.808868139262932107e-02	4.575212106346658592e-02	-1.645721039481685410e-01	-5.183775640569052157e-02	1.089006061992072727e-01	-4.990666534091518780e-03	1.507315273107510782e-02	3.876391006720898702e-02	1.476499035072731045e-02	-5.503284965442717738e-03	1.665506724079246145e-02	1.050241764988260051e-01	-6.073829535841141630e-02
1.035669341312856623e-01	-1.821615298942069056e-02	-3.665173248342345341e-02	9.318018780355113995e-02	-2.390882161608990156e-02	4.502451169891973776e-02	-3.102594308327912345e-02	-6.445825539983029984e-02	-3.241606883516399973e-02	7.520037711206074837e-02	1.068176498632800821e-04	5.440972370407117648e-02	-1.392310573212308944e-02	1.256978317792924182e-02	-5.077922621058028607e-02	1.557890282317521240e-02	-1.115536726522053934e-01	7.268647777686229258e-03	-1.147093285585913669e-01	2.226946772684446421e-02	1.463778012429211607e-02	-3.322393368193492236e-02	3.953957708172513297e-02	4.528306179662420355e-02	8.629282060402088117e-03	-3.358169809297720243e-02	4.695162070068453221e-04	4.389129277718295530e-02	-5.634761454561739574e-02	-5.567268550870577148e-02	7.509565031196903384e-02	-1.238918999261138243e-01	-1.570054426793411340e-01	-1.016991559968894315e-01	1.416360549376529179e-02	-2.392866171254504071e-03	6.710764263544295727e-02	2.504064449293161559e-03	8.227315107510223269e-02	1.009810375521151687e-01	6.385625523204171983e-02	-5.436072897932010817e-02	2.318481831415002657e-03	-2.840279984024867907e-02	-3.683720865030754715e-02	-7.735055673642098062e-02	-2.437830420856518243e-02	4.569897552678112845e-02	2.093457907663075906e-02	-9.332386440746152922e-02	-8.913961216831838008e-02	-4.549077906893503331e-02	-5.433304804611251843e-02	5.324741475331746382e-02	-4.048013270643369826e-02	-3.518677078603653363e-02	-2.131838664621144713e-02	6.847316984544381258e-02	8.767876123309245595e-02	4.516349229059381243e-02	1.902908384216411147e-02	5.390180753256094276e-02	2.784626928766643222e-02	-1.693343627754050063e-02	5.756777141099975181e-02	5.458023044899796769e-03	-7.448958667759492114e-02	3.832619582411754544e-02	5.063093127247193792e-02	-1.133105637196511056e-01	-1.522670536486135928e-01	3.209620916983084438e-02	3.903351188974747005e-02	3.114630751177015905e-02	-4.080684009624452324e-02	-2.852851934945896048e-02	6.422133234348484376e-02	-1.064390051442771906e-01	-3.909642304943629874e-03	-1.084879645402330763e-02	4.823313314213832637e-02	-1.278953287912424630e-01	3.104529861818100035e-04	1.233273756738717669e-01	-4.092892253642770040e-02	-2.271674853301116834e-02	4.183667595553443308e-02	-4.907745058052777332e-02	5.433221840037648354e-02	4.059933975123902056e-02	-4.829588232526255132e-02	-4.788068086219455762e-04	-7.832657352702121489e-02	7.864425451148449042e-02	-1.252701909514533918e-01	-1.011031685153431503e-01	-3.460237702739441673e-02	-1.767263207530733737e-02	7.235432804173862198e-02	1.794451327095173548e-02
4.528805340307696936e-02	6.174782020903120394e-02	-6.126365942587354285e-02	-4.770105558946537150e-02	-3.564003936597353456e-02	4.205109163596111588e-02	8.414915597507804934e-02	3.302808044549789684e-02	-5.879806831621756102e-02	-2.226291917772312348e-02	-5.334289048083374479e-02	6.489238525685363246e-02	-8.614081642416418494e-02	-4.906887345408434027e-03	-9.413467216863861953e-02	-1.016202309383169022e-01	-1.408732338434186271e-01	-1.821059321139276849e-02	1.933091401042345663e-03	-1.164657724669552336e-02	-1.873034676096601431e-02	-4.906897512337648343e-02	-6.043295223011285050e-02	-3.915177692582359759e-02	3.852985658562847228e-03	1.054306651159361563e-01	-3.474850896080579343e-02	-9.593509098727782958e-02	5.518062753014389005e-02	-6.615944638000259559e-02	3.866284129939837749e-02	-1.566903666347622265e-02	-1.324981798207798935e-03	2.010520155538549902e-01	-3.943339965860654522e-02	-4.507334121942287164e-02	6.011288506249390373e-02	-3.146190122519135126e-03	-2.986994087506568418e-02	-2.964973807715488852e-02	3.103889197262899025e-02	7.448230274540308671e-02	-7.367169261488915044e-02	-4.397934103281968266e-02	9.760834043323225739e-02	-1.005321043195429170e-01	1.629467203343099371e-02	3.964124051532765675e-02	-4.724361088431230926e-02	1.930962341781151254e-02	-6.474906613409051048e-02	-6.439349789190396134e-02	-8.963794485149494118e-02	5.613001837405609540e-02	-4.800165577492368496e-02	3.828901530119722951e-02	-5.900329411797568258e-02	4.065503288030788281e-02	7.448283259309847193e-02	1.560441340923049945e-02	-3.157780166202192595e-02	-4.673178298509284012e-02	7.507075140298598293e-02	5.000328948647401323e-02	-2.300670496872948487e-02	-1.071262708210264092e-01	4.953659527225746928e-02	9.625356801611795188e-02	1.284402816970690586e-01	1.877793259330920450e-02	-3.918806650185650831e-02	-2.112293492757582811e-02	-3.341893903019073353e-02	-9.914909994566296902e-02	1.608763851338684825e-01	-1.002114108387496157e-02	1.633673919118123763e-01	-2.224960973430560943e-02	-1.022542197553641258e-01	8.424496235025925872e-02	-5.471898190394865191e-02	-1.157750187810158322e-02	8.702105535342502529e-02	9.104346809369590066e-02	-1.219769210625908235e-01	-4.368480658172730832e-03	-7.606109877326966417e-02	2.611061590559908205e-02	9.213508817136158158e-02	-2.044424589948103110e-02	1.287111496032430635e-01	-5.983869411794949522e-02	1.311788258618221126e-01	-2.394801400193881380e-02	-5.502885655362764472e-02	2.055898075130658739e-02	-4.979198504121323809e-02	1.180606795482102012e-01	-6.520551627386683702e-02	5.442136156856692414e-02
-4.587765598069881712e-02	6.065501156668415272e-03	-2.161089248399137089e-02	-3.673413115871169282e-02	4.147910480389296883e-02	-6.766943214932830131e-02	7.772134142213468766e-02	2.978013802670750193e-02	-1.838900797321049163e-01	1.234699371238819066e-01	3.695124109663853323e-02	1.123418177802804063e-01	-3.502358323482865354e-02	-1.207572265167608933e-01	-5.090714353027807337e-02	-6.276888000905216092e-02	3.449001612101356296e-03	5.284769774181740341e-03	1.410016861053508706e-03	-9.510759017058337261e-02	-2.728245068030411835e-03	-1.377134692466519539e-02	2.987055595137097855e-02	-7.518802441478225629e-02	-3.285854782414497632e-02	8.297260745815279726e-02	-9.502181820988649108e-02	2.564734223262864210e-02	5.852016905781524947e-02	-9.129383424167192285e-03	6.352807469595107837e-02	6.995568102703361713e-02	8.456382046195601299e-02	-1.821720644019320795e-02	-2.784029647172772334e-03	3.516891793265310151e-02	-4.556147560254498151e-03	8.923070576031505007e-04	-4.674568582694901830e-02	-1.243059311700647346e-01	1.629330270338131062e-02	1.105447017943223531e-01	-4.020753088368763523e-02	2.645058472730334523e-02	-3.410976573717716676e-02	-6.105766626374174721e-02	-1.712388733478118277e-02	7.620848411807563949e-02	1.442349722873434159e-01	2.317419894608349282e-02	-5.656489756772548061e-02	-8.386348079427710656e-02	6.592948176820181971e-02	2.626897115708700867e-02	-5.729730809412409559e-02	-8.526020055105783257e-02	-5.886380723409681548e-02	7.635446429596719209e-02	-8.007605098508448899e-03	-6.023302308149764556e-02	8.369844295340110596e-02	-9.075847337646153826e-03	-1.423343542911415134e-02	4.242341477862793947e-02	-4.849030441194966679e-02	4.912750287425228513e-02	-7.395343887694169616e-02	-4.996544730220324471e-02	-4.611432324673043343e-02	-3.022518944914658057e-02	-7.186772015498228694e-02	3.309433851082663192e-03	-1.076538773751760592e-04	2.801062749697622034e-02	4.617779628850485901e-02	6.065587528630452668e-03	1.183606840223413448e-01	-3.332663539429041311e-02	-9.302407443779993346e-02	3.173202690981800217e-02	1.008089667005570150e-01	2.449317211249545448e-02	4.034490672028140379e-02	-3.094604923715142675e-02	5.637380222100783940e-03	3.232377764660267910e-02	8.641396944654307008e-03	-3.613271385406215813e-02	8.166073457403161262e-02	1.938288552774995038e-02	9.622750092940546285e-02	1.715072481945104782e-02	5.625644037089292532e-02	7.753196329398566455e-02	-4.076766814019621571e-02	5.152507177082072537e-02	1.556624546950311494e-01	1.439877968328679148e-01	4.061029846488313499e-02	1.163455106809433842e-01
-4.696470317390526866e-02	8.468134506239363701e-02	-1.668361671981436617e-02	-1.174316726694997759e-01	2.278546005761742169e-02	5.309341411033161734e-02	-5.023980247830898277e-02	1.298625738067750168e-01	5.500556793511132692e-02	-6.580830995247677340e-02	6.905133667878653181e-02	2.916927822547680030e-02	-5.664438339779482440e-02	-8.483889158327003951e-03	-5.236550522279258962e-02	-6.220353120636903932e-02	-2.019671408436945689e-02	7.310026732025290408e-02	7.162065902349898372e-02	9.082844760770084069e-02	-3.891120652230901922e-02	5.979588559255643622e-03	-5.626101973846286963e-02	8.187509713612400875e-02	-1.034241402968926610e-01	-9.136268640191799739e-02	-6.356562319049501031e-02	-2.425856938096499892e-03	-3.677185162188572470e-02	-6.639636439469767844e-03	9.238555710061845117e-03	2.332897461041122042e-02	-6.568630940693633014e-02	-1.657449234470897287e-02	3.702034186791163667e-02	4.942922676999894280e-03	1.015419313218638847e-01	-4.493330996200788768e-02	4.584494302382959713e-02	9.468463769192027313e-02	-1.125632646804296082e-02	2.766598111483489775e-02	-5.749013406654900592e-03	5.249251704570832844e-02	1.441315048997367058e-02	6.647408981848536291e-02	4.642118499576171863e-03	6.418317069098572469e-02	3.551951095651924295e-02	-8.461411880005920150e-02	2.390357544443814236e-02	-1.479924448460701904e-02	-4.610928664886960321e-02	-4.360449553334130174e-02	-2.613824391206412065e-02	-5.937203460688488671e-02	1.054163462040426935e-01	9.731773309592760268e-02	-2.211810049761088123e-02	6.148170791883108416e-02	1.001059214557638855e-01	-3.693913671327449244e-02	1.091970490456359716e-01	6.056241030512683060e-02	-6.605257173604519444e-03	-1.102952645517063651e-01	-4.747692000207449914e-02	2.054552692377803122e-02	8.039213005886223715e-03	-7.389212822487537316e-03	-7.359063465138164506e-02	3.847843719123490713e-02	-2.682442449797855025e-02	-9.355013113925779444e-02	1.801256895074553749e-02	-4.146841063135122546e-02	-6.372336315878779356e-02	6.415857920014361726e-02	-1.327327877711746880e-02	-4.201635953019332292e-02	3.818145471596408325e-02	8.922245119850399225e-03	3.617699261755005086e-02	-7.854653163636271529e-02	-6.488489944568871792e-02	2.702751676365559505e-02	7.287438784679878268e-02	-3.263398770818217668e-03	6.886260338220934175e-05	-3.809623657190302354e-02	4.083265942097159124e-02	-4.716268793909296486e-02	-3.395030370268765137e-03	6.535988681769702713e-02	-1.436151073371341458e-01	1.571655295277283801e-02	-1.540277379531392390e-02	-8.648348284560850724e-03	6.219576988447741289e-02	3.604484883887553587e-02
8.236424456513601056e-02	-1.020292239874000528e-01	-4.467100489425757798e-02	-4.050889035993972265e-02	-2.075343543934680957e-02	2.216538161374289120e-02	4.160754739620393938e-02	-4.575554044079333665e-02	-7.837871237208737796e-02	-6.447230186918259665e-02	7.704302745019057930e-02	-6.988555707546706582e-03	-3.066440016367265667e-02	-9.382720156636457920e-03	-8.228963422628544910e-02	2.950436107678406153e-02	2.776794109294754634e-02	8.744533572490055529e-02	-2.365451558768039836e-02	-1.045066895310300080e-02	-3.961283523282096986e-02	9.860236318807838463e-02	5.145180210714157820e-02	2.011918420078281922e-02	2.910834875059337135e-02	-4.650877686393773552e-02	9.165220903791100604e-02	-5.106494926130309558e-02	-4.014936744325903195e-02	-2.995388218581720302e-02	1.046486344629455750e-01	1.838583172362872123e-02	5.656235303993967928e-02	-3.347196926091962864e-03	-6.628741680470408293e-02	3.351638148994114802e-02	2.320363729688897612e-03	-7.795200043474664886e-02	-3.044715776752974015e-02	4.651126181482644062e-02	9.876065945521775302e-02	-6.772723547713221937e-02	-1.456157303215516730e-01	7.525237158137366988e-02	9.343507787852459515e-03	-5.081737323362975345e-02	-8.390713423417449487e-04	5.639097632333175958e-02	1.267087272159056477e-01	-3.202934974866007006e-02	7.273883763309402228e-02	-2.759596900705421282e-02	-3.887326831862947252e-02	3.244569725226566226e-02	-8.640463182915861240e-02	-9.944085098804228418e-02	4.330898638372189524e-02	-1.080672876985409037e-01	-1.779668865044398401e-04	1.830981588603295849e-03	1.183372057859315846e-02	-1.038344090940882952e-01	-1.148977843245767849e-01	-3.076970631173999576e-02	-6.796429794705313721e-02	-3.102938695082883835e-02	1.333300470311004661e-02	-4.063719165364895747e-02	-2.855443341042462543e-02	1.054205257306283471e-02	-7.212063482482937438e-02	-3.112783971799077884e-02	-1.764235202078232034e-02	1.250448203356643861e-02	1.593876761474346260e-01	8.462884179425415876e-02	-4.709126739595719674e-02	-9.435391709801356497e-02	-5.151663332950700766e-03	8.978145857020424989e-03	-1.271008576370516452e-02	1.390200964686013341e-01	5.981901291489193084e-02	1.015026397061322555e-01	-2.918414528174609335e-02	-5.617471508779681849e-02	-7.495066152938872905e-02	-1.155952699255493633e-02	-8.501866579528369328e-02	-2.715429169890062888e-02	1.770658911981125988e-02	4.821976070585325819e-02	-2.143261692799542512e-02	-5.749241947143967496e-02	-5.411354452882952137e-02	1.430632720060517372e-02	6.337728613701258673e-02	-2.451887948024239136e-02	3.387924751170856563e-02	9.901225275348676802e-02
5.674118810240701832e-02	1.350888839946769518e-02	-4.685735243414133194e-02	-4.957436784385217676e-02	-1.038638297309263381e-01	3.184151368305516983e-02	-3.051283162799678372e-02	2.690313174356875892e-02	6.083012800779889935e-03	-3.761217142236220751e-02	6.950743928174875352e-02	2.923492892973920607e-02	6.155374771272946466e-02	1.953098447966085394e-02	-8.308541802898198464e-03	-7.803361237868374281e-03	9.085080368744408164e-02	-8.822516063813755360e-02	-4.139061371651960725e-02	-1.091029958336680282e-02	-9.412868948764975541e-02	-3.310610961306543337e-02	-1.320000823552011926e-01	3.343357774092764467e-02	-8.940858469111108431e-02	8.630484233272436856e-03	-4.198397963207816525e-02	-6.497791686925119548e-02	-1.078885854374372483e-01	-4.794409449723324029e-02	2.441746113181433864e-02	2.632260168040151654e-03	3.243580112604241977e-02	-4.247780109287725703e-02	9.635269329985422793e-02	-2.495356988557154154e-02	-1.029975460921227909e-02	7.370953433548323164e-02	7.188294436269425380e-02	4.865557573994744485e-03	-3.097135661420836322e-02	6.482983441415800241e-02	-7.032844017507702827e-02	7.554283912573353521e-02	-8.800116385369909089e-02	-2.311922572660502634e-02	-2.429818816853848013e-02	8.400700954358310268e-02	-8.914453814319506231e-02	-1.098348114681388550e-02	-8.063485989721921182e-03	-1.364161019342058356e-03	-6.047636298952697997e-02	-6.711656342726543545e-02	-4.879733852251620652e-02	-3.826722125794901341e-02	7.284822110028654762e-02	1.161828836622452038e-02	-6.964301420319536987e-03	6.085797530263537675e-02	-5.964071116450935656e-02	1.472121400470377366e-02	5.537594304656719146e-02	5.969891952491662712e-02	-1.994921954476235049e-02	-7.775250522938606523e-02	-4.857158252844449853e-02	1.643541863918567686e-02	6.429340345233770793e-02	6.745855838822413519e-02	5.961233044641922607e-02	7.449883841741186674e-02	1.574785225170554715e-03	1.131761254863257286e-02	2.414731870986642701e-02	5.239509836750893407e-02	6.008581044402964283e-02	-5.497486097503866305e-03	-8.132727538583005289e-02	3.722917247863540696e-02	-9.320490505946991966e-02	8.475512153887848621e-02	4.871616470675319693e-02	-8.468608849211736733e-02	-7.871286166775149154e-03	-7.605145531280853299e-02	-2.154428119236988584e-02	2.703556622961757888e-02	-2.030161273637402786e-02	-6.927595308016268327e-02	5.760821101250342829e-02	8.710463795639795254e-03	4.278582251667431210e-03	-3.661118434157657753e-02	-4.847723665196762566e-02	1.891870319492954672e-02	2.206958969131576562e-02	1.505436745954369937e-01	1.130348180798459654e-02	7.070411580620316987e-03
5.634201631195912691e-02	-6.404622609189047910e-02	3.271844070610688618e-03	7.894617384655804038e-02	-3.773544784995013640e-02	1.400735220722454204e-02	3.417596030036228194e-02	-7.959762959963512241e-02	7.171754542396598098e-02	-5.253180866732820586e-02	-8.498937761771652513e-03	4.467186889798093613e-02	-3.823524649116732954e-02	5.610949442446754726e-02	-1.798393518336745961e-02	4.084085062296030633e-02	9.994827802295321723e-03	1.180626371151976273e-01	-1.269328856131959615e-01	2.769614238341796403e-02	-2.317517585520276202e-02	-4.258711080409142979e-02	-5.350543586347630831e-02	-1.055112381951867073e-02	2.503721940390537387e-02	-6.441073687952432458e-02	-3.629537081324308440e-02	-1.054136092484287811e-03	-8.492653618345567812e-02	5.562959094457845671e-02	1.462094072225394725e-01	-2.901743860063573863e-02	4.704434554317895451e-02	-1.486209092119516496e-02	3.446763790306627689e-02	-2.170833431079473644e-02	1.658922282403677007e-01	-2.059226596302602894e-02	3.936401677346087341e-02	4.510979793606119392e-02	-6.556856714865182123e-02	-1.123133638725235389e-01	1.466908430853514599e-02	7.031146340589659871e-02	-3.893308645357437120e-02	-5.485034823084079803e-02	3.138014681639975101e-02	6.350997050350147555e-02	7.154131804089873536e-02	-9.427720030752300556e-03	-4.657864041662633514e-02	-7.180280878457964699e-02	-1.244617975207994859e-01	4.668187498462090905e-03	8.864956163036633030e-02	3.247626481857860455e-03	-1.686295019402631740e-02	-8.254716809960582768e-02	-4.525374286553467129e-02	2.085189676678831164e-02	2.053415310234902799e-02	2.543938300047602144e-02	-6.587395450436120924e-03	4.747695430381718845e-02	-7.326971143876196378e-03	-1.743347614554855568e-02	8.089935601704383028e-02	-4.122667215963320142e-02	1.699410107378920842e-02	-8.077621281215609239e-02	-2.258528968005977730e-02	8.593700961934082339e-02	3.893068276521804982e-02	3.838182091117582628e-02	9.847881913155419331e-02	2.760646854806280900e-02	6.954707522410852327e-02	5.341332266933093535e-03	-6.516047201161818958e-02	7.195151816692910672e-03	4.946147514500928016e-02	-3.777107057635062382e-02	5.523481016312926060e-03	6.935248481699311796e-02	-2.662282844608745633e-02	-8.065044941815363577e-02	-9.650287289053418802e-03	8.695262088547150992e-02	-6.509058723359650855e-02	3.331808788990111864e-03	-7.708497840481619984e-04	-2.697123667568136068e-02	1.939499795388551287e-02	1.088926220690999008e-01	-6.964332467940290150e-02	-3.745972562904004849e-02	-1.932376864647801853e-02	-3.444998316322070431e-02	-9.201536528908789425e-02	-3.011400247302485969e-02
2.239368875288187330e-02	2.089309330569828153e-03	4.664075480302019849e-02	-6.173676939128893565e-02	-3.174480189464550656e-02	-4.689955504495396665e-02	1.210987162100819921e-03	8.956907166156942435e-03	2.200299469700081959e-02	-3.777014214721804986e-02	6.352235289386168327e-02	7.708722817043892062e-02	-3.995829422944898596e-02	-2.613309485700535117e-02	-1.623902947101447947e-02	-3.769835690643229958e-02	1.206092998966841467e-01	4.126412775460389093e-02	3.507086615790014350e-02	-6.641587054213106411e-02	-1.068410023727031921e-01	5.239593792142684808e-02	2.308435746336813532e-02	-2.143381188811198032e-02	-4.103418506474688920e-02	-5.193787019566215024e-02	-1.373605895568887243e-02	3.636696511845786267e-02	-1.073738084431888756e-01	1.907389805490850368e-02	-4.393897037476532375e-02	-2.076214380602689133e-02	-1.525936294715409328e-02	-7.554412076291387723e-02	1.677758111732069735e-01	1.286839661179592920e-01	8.186584816777014995e-02	3.596875766991829843e-02	-6.665270762634453727e-02	1.472287771784027421e-01	-1.972780800223971655e-03	5.203875754010703000e-03	5.072299551725598793e-02	3.663388919377223024e-02	-5.277398911852570346e-02	-3.093850945756145346e-02	-4.667465306805604341e-02	1.803613375428702800e-02	4.838148203315744550e-02	6.228187813551866979e-03	7.397360777383830965e-02	-1.768680247662733976e-03	4.580768856449476956e-02	1.064618180428603123e-01	-9.281194511557756821e-02	1.678723566485877672e-02	-7.413044037596150382e-02	-8.175844268060257491e-02	8.470933728577570432e-02	8.607859056246702778e-02	6.355103446430283853e-02	-5.448369624881158751e-02	8.931122358454167409e-02	-7.151726426139978776e-02	3.151068032290514371e-03	2.150739313880256978e-02	8.251443268639233053e-02	-8.590850408533870497e-02	-1.434605258911018366e-01	4.644234505227328846e-04	-9.852728707937812372e-03	3.425272074949210765e-02	-5.099540489942366861e-02	-6.514771320140381149e-03	-5.113106788905735084e-02	1.580066109739261537e-02	7.729717158013355016e-02	-6.018599630576842302e-02	-1.245027490817612326e-01	-3.064559626383596067e-02	-1.656380269336382022e-02	9.036956698661720994e-03	6.711771979658544274e-02	1.487594363019484507e-02	1.151681217808645380e-01	1.753762060809868281e-02	-7.592832350929357155e-02	6.040880622600187932e-02	-1.763070041346587874e-02	-1.878730802915641943e-02	5.867984038810529490e-02	3.617867873953541135e-04	-8.407304678608780446e-02	-2.532489622420885933e-02	3.816828778101170189e-02	1.357619707034074703e-02	6.788140568167751188e-02	8.751375562921406837e-02	9.995363880189968298e-02	-1.787312333431950034e-02
-1.208373382835837249e-02	-5.360790531328088471e-02	-5.564652080284214486e-02	-6.698621402010614123e-02	1.238818571981881687e-02	-9.478383809012639813e-03	2.345193055806376464e-02	-5.059454821923327350e-02	-6.056033194928477081e-02	2.849832998553713387e-02	5.114039955487468397e-02	-1.109479829914001014e-01	-5.955165133489787738e-02	-4.848461110533609265e-03	-1.444557520270651485e-01	3.385682887090444432e-02	7.514126276155981554e-02	-7.897128095040564788e-02	-1.009373375402071449e-01	6.162581482254480408e-02	5.967206956567260717e-02	-6.068848353227444814e-02	-6.366035602235918522e-02	6.049430803857498012e-02	-2.235534997191199191e-02	-4.278587967529338953e-02	6.509308901095313404e-02	2.468936536726266430e-04	-1.232161725915708050e-01	6.067665661165322875e-03	-7.458015221106599479e-02	5.268280511554878504e-02	5.065295817241407400e-02	2.830762763464670165e-02	5.722553014804934723e-02	1.021040392943980135e-01	8.038944180709541032e-02	-2.334016596620426889e-02	-6.951978169698970478e-02	2.301753053675400368e-02	-6.274601909353744178e-02	-7.068509953819557268e-02	-4.538765747519267479e-02	-8.101283438911868751e-02	-8.299862718312137067e-02	1.060630967516213927e-02	-5.239622728319041911e-02	-3.385410574187049625e-03	1.489688206224073878e-02	-1.372561895026903345e-01	9.645053219182533888e-03	-1.752922549829151033e-03	-1.207616325213469073e-02	2.777661504153816283e-02	-1.469819745880125983e-01	8.597836282301948851e-02	-2.976415743073058950e-02	-7.755468403817634970e-02	-2.828779476396759947e-04	-5.277294224442610759e-02	3.718560420070157746e-02	4.222806502582669881e-03	-7.353021627206750288e-02	5.613813798103378661e-02	6.826191722408715863e-03	1.365547071804857661e-02	3.156644040002452162e-02	3.172342972461662802e-02	9.796397236950325771e-02	4.345197935368209224e-02	-7.441225083281069041e-05	-1.986624511967123238e-02	1.613711134962064753e-02	-3.615109348245487686e-02	-4.586197727425633114e-02	-1.085266804284767093e-02	-2.686511699173867868e-02	4.754038199987026952e-02	-1.106115401291525926e-02	-2.054643379391014532e-02	3.961409453839303402e-02	-1.043604926320499879e-02	-2.289615287780563321e-02	7.407527931547693012e-02	-8.490634197434526742e-02	-5.444823161831029157e-02	-2.091393856505199822e-02	4.028342441575126498e-02	1.993461227362559960e-03	-5.737054163503372411e-02	-1.050646192978558179e-02	9.150105036014424820e-02	2.409701707280864635e-02	-1.199289945937322306e-02	-5.623696199055924078e-02	2.192193474671568221e-01	1.083420300184653601e-01	-6.576005813042257175e-02	-2.993997328469232347e-02	6.070267009651596907e-02
1.260472093080263617e-02	6.544915279479014691e-02	8.078462022194668468e-02	-1.389841394269418842e-02	3.025861884601609500e-02	-1.296485890002034395e-02	4.085045094890154410e-02	1.046379925451327991e-01	3.107185891464082569e-02	-5.472302737747608559e-02	5.435487632525631135e-02	-1.068212626965806163e-02	7.605632582867710711e-02	3.726329027000654937e-02	3.435707103910583954e-02	6.754086680751716573e-03	3.803510822965640043e-03	5.798932182967671267e-02	-1.242600476502447697e-02	9.778504316266503626e-02	-7.173011891649352934e-02	5.228921634439203520e-02	-4.052695537005827214e-02	7.212718312106185248e-02	-1.120185559641994899e-01	6.149434804413367317e-02	-4.472951167583445048e-02	-8.811124387012352066e-02	2.310578035631401933e-02	-1.961180135976032385e-02	2.248554800357938088e-02	8.071399533430974327e-02	-6.895920130262792047e-02	-3.948037015768263852e-02	8.334136415074086882e-03	2.151787421736785916e-02	-2.131284277724219273e-03	-4.764041473442665736e-02	3.806039372508702306e-02	6.681880223855714285e-02	7.758594971136174856e-02	-4.704636048494751505e-03	-1.677230785196482110e-01	5.178400607885779577e-02	3.587628785525741326e-02	-1.029360764941760487e-01	-1.976194156564552856e-02	3.018971400811734998e-02	3.602885491973720211e-02	-5.131978648005183080e-02	3.714562496938279834e-03	3.310774707786938442e-02	-1.119441325850572683e-01	6.056094234714910068e-02	-4.318360106022980927e-02	1.978342166683441303e-02	-5.279995252479071505e-02	-9.356797024488198999e-02	6.142809951169949517e-02	1.152521455152211716e-01	-7.398805409804529165e-02	-1.015249587890575539e-01	7.996717634099573604e-03	-5.318139735970342508e-02	4.312548996484831532e-02	-5.247140143444298938e-02	-2.160798677867075551e-02	1.435731174667422352e-02	-9.234767441996694082e-02	-2.464975765273839936e-02	8.806831152526621576e-02	5.809251218572438619e-02	-5.802625860351861425e-02	5.638282126766190616e-02	1.567589238478345193e-01	6.507643920547208360e-02	-7.929692976266991197e-03	-5.589143332627558719e-02	-3.026015145757461611e-02	-8.368288409834394315e-02	-3.425744071264225088e-03	-4.433557718672526821e-02	-5.858878815486474878e-02	2.538929859075211154e-02	-3.759326030945382702e-02	-1.622129728156808393e-02	1.107384488572848019e-01	1.624947640311076233e-02	5.625729094887686743e-02	3.467792213394819273e-02	7.734862204236772620e-02	-8.410118488056769759e-02	-2.570759878943003340e-02	8.557294619540033870e-03	-5.406469873972696849e-02	-8.280731620210856139e-03	4.024068925236268940e-02	1.581254799561254004e-02	3.631499362504241740e-02	4.702833667802417544e-03
9.103707777225759912e-02	-1.023953598790542513e-03	-5.531337406448223748e-02	-8.653347690614456023e-02	-3.113586107978402392e-02	-1.790633659125617089e-02	5.927014170523403624e-02	-5.528066342200114308e-02	3.717351970888452262e-02	2.464933019169652725e-03	-3.713816902560916622e-02	-5.339581383175229928e-02	6.858973828195148725e-03	-1.001957743249856925e-01	-5.331850775192078368e-02	-1.743753244993408863e-02	-3.742237708368937113e-03	6.666705688554046272e-02	-4.611057384152093819e-02	1.363290516798894986e-02	-7.609472379813109200e-02	1.607272137720256941e-02	2.841932758242558116e-02	2.158376575869863558e-03	1.293601126090303775e-02	-6.671827832889288754e-03	-4.674423904143148317e-02	-2.044345081425266372e-02	-2.949496078778447022e-02	-1.224512858417240030e-01	-7.999800359689171469e-02	3.484329039997101363e-02	-1.264900466874106510e-01	6.983756006426096452e-02	-7.765309128466474364e-02	-9.463717433055031034e-03	6.570354785443348333e-02	-3.861633837471727115e-02	6.063371178778538539e-02	-6.902339329188925121e-02	4.928620341487176953e-02	2.089412308341846020e-02	-2.746394681701145798e-02	7.995675319319064944e-02	2.314427619313242507e-02	-8.780006635517717539e-02	5.647785316369446224e-02	7.223130368463631656e-02	2.238128278382589195e-02	-1.587307751797647701e-02	7.599493862876965933e-02	9.413613086193828305e-02	2.587929074491275919e-02	-5.908119852857797449e-02	-1.513887088488600347e-02	2.298651489214765739e-02	-6.040864411986414384e-02	-6.438023755912296309e-02	-6.384199585951672723e-03	2.704977562313177347e-02	5.515393658002851196e-02	4.401481362904226258e-02	-1.233514123593816014e-01	1.312283968008959127e-02	-1.260371590801940590e-02	-5.576226950390987362e-03	1.791381596762348788e-02	6.133911133017901779e-02	6.557237771446816632e-02	-8.828508012786085227e-03	-2.302503009756008689e-02	3.031083886015458959e-02	-8.054181177913405029e-03	7.230653703821700307e-02	-7.260275719647824033e-02	-8.932461811067647639e-02	1.179748793529086237e-01	1.514538463385542086e-02	2.749928354878584252e-02	4.366362338021328310e-02	-1.215601425945268127e-01	9.671834490583490485e-02	-7.539097217237909765e-02	-4.981933719564939078e-02	5.471078402987644002e-02	-7.110825388049633877e-02	1.743096343866766540e-02	7.735471785979748660e-02	-4.989652691502512866e-02	-2.457464288401793248e-02	8.133242906667910443e-02	4.545253538522479181e-02	2.556569502511327543e-02	-6.754886554296321566e-02	6.460394479293750380e-02	3.934083845236941573e-02	-1.049639153000415798e-01	-2.325700189376398927e-02	-6.462956866391196542e-02	-2.586970123498165755e-02
4.327149218436086853e-02	-4.153366318808363739e-02	4.966961176050485594e-02	4.963391544914474984e-02	1.753753731246705805e-02	-6.399973155645390099e-02	-1.011792166490538616e-02	4.156792006428429442e-02	4.422987433639562205e-02	-1.902814346281950578e-02	1.543152390727310121e-02	-3.479777810669491822e-02	-5.141157866064449689e-02	7.719129800644559947e-02	6.540124056260225582e-02	-1.193414207739253337e-02	-9.570226855924816520e-03	-1.075068022120305965e-02	-9.889893116480714952e-02	2.819614000460212919e-02	2.144060577571841805e-02	4.761769666405900325e-02	-5.171994088430032464e-03	5.298199898193408502e-02	1.207572803233757141e-03	5.909036381902622870e-02	-5.269378453659784127e-03	6.680004424922642015e-02	4.362656223760069674e-02	1.216616897950912810e-02	-6.517835555491714727e-02	3.971389882490829193e-02	1.250326155851719245e-02	1.136994012516746033e-01	4.652437906169253068e-02	-7.649345208411538477e-02	-7.280482646673082717e-03	5.373427232488433430e-02	-1.758331313631443168e-02	-5.933275354482829556e-02	2.528483607091884869e-02	4.080421178936512877e-02	-2.558055030483547682e-02	7.129676526931419400e-02	-1.398168618550092723e-02	8.928247886811914447e-02	-8.829714118699952263e-02	6.668830544277822014e-02	7.356695855798592310e-02	4.858245713182442194e-02	-8.325638475873460218e-03	-2.535962210296503413e-02	9.096009629810797303e-02	3.953038150525832461e-02	-5.583601371952470055e-02	2.369800322231793710e-02	7.930422542365571370e-02	4.363892492343317275e-02	-4.860293126239048633e-02	7.707478288720681636e-02	-5.535283762635824500e-02	1.785132611312873971e-02	5.900791795663701267e-02	-5.445130598839380276e-03	1.525162635792286052e-02	2.185529414820276510e-03	-2.265890726456713106e-02	-4.732057418497416512e-02	1.724631550561567944e-02	-4.207878553977431602e-02	5.917423595208050335e-02	-5.395999943037911584e-02	1.034226151197671639e-01	-1.754893039878404476e-02	-6.761348485600796043e-03	-3.986564762124024386e-02	-3.425887733956339137e-02	-1.351971826727301762e-01	3.819288826330422687e-02	-3.202252055734495367e-02	-5.348565338113324408e-02	-6.165233458109735387e-02	-4.056430413992326289e-02	-6.532544398853276646e-02	6.984582101558757528e-02	-1.138349043117289766e-01	-6.848447796794285281e-02	-5.594076276224955319e-02	1.499702196499186346e-02	2.405379111708053422e-02	3.420598238488910259e-02	-1.619715773143615839e-02	2.881660464417618375e-02	-2.220476507455201517e-02	-3.916287913292970505e-04	-7.289059318310850411e-02	6.218804754412902980e-02	-6.100053718366442099e-04	6.163069291783994375e-02	-5.158160455556220353e-02
2.333757065005019268e-03	-4.763046984440638676e-02	3.324225148637776489e-02	-9.575904804057923381e-02	6.426447164067190798e-02	2.349136729835684875e-02	2.257121405900548022e-02	-2.160332592065963148e-02	4.586734079077376021e-03	1.087669815826920738e-01	-2.905300501117532436e-02	3.731677111840066979e-02	-3.999369298653861204e-02	-5.370023483149732185e-02	-7.427990923961338976e-02	3.825032958802748045e-02	3.050901343249868593e-03	-1.083853217302065963e-01	2.006138811576580611e-02	-1.163352443956059724e-02	4.711811380664452514e-02	-2.439022822818631350e-02	1.264182662386521550e-01	-3.228879003942863868e-02	3.587322509789786507e-02	-7.475712784858415394e-02	-1.563256538225699793e-02	-8.314007258442629444e-02	5.415512501209202717e-02	-9.764838016315054853e-03	9.273661141755386306e-02	4.257026405439118602e-03	-9.972030010395697974e-02	-4.563873522500943442e-02	-1.893109555270984512e-02	6.848060207325512572e-02	1.959397622121954174e-01	-8.466254558097277907e-03	1.190623138930274778e-02	8.219296947518836549e-02	-6.887726504370028646e-02	-5.885528570406379362e-03	1.989078909042913193e-02	4.196104345106883848e-02	-1.283290033996376499e-02	-7.469889693674908182e-02	-1.896519058371918046e-02	5.543521560194587111e-02	-2.505711766592925993e-02	-2.021233610629197611e-02	1.194682893287256631e-01	2.600793730102388471e-02	2.475222543664445246e-02	-5.178666663709297069e-02	-5.385940772462276260e-02	-4.264063246284249820e-02	-6.064975528652039732e-02	-6.456679672481330234e-02	-9.705480910039097908e-02	8.573347783697062366e-03	8.140447945645899741e-02	8.617907850096575770e-03	4.158140183124171135e-02	5.998410488151848657e-02	-5.028687711839605057e-02	-4.590611506863071650e-02	-5.338320242206797718e-03	-4.926242987961699377e-02	4.772955312874552214e-02	-4.445256593765794378e-02	3.610273671458278516e-02	-2.641530397084946441e-02	3.207305944361917016e-02	9.288899792476494610e-02	-3.238866829784892848e-02	-4.027396792225722971e-02	-1.851945597231696716e-02	-7.912388243679019384e-02	6.154870522262144775e-03	5.708032251728254597e-03	-4.739059933739354913e-02	-1.588006539248550120e-02	5.893926790774603637e-03	2.499368298502708738e-02	-6.919569315206282323e-02	1.283632408976411732e-01	-2.666884211409406916e-02	8.914686402790341344e-05	-4.865467095504048822e-02	-5.513129215808270853e-03	-9.613037234780116846e-03	8.768041828606498722e-02	-1.007234099051997206e-01	1.301737067551529160e-02	9.846315945212400986e-03	-8.872506422054700359e-02	5.761344460467154871e-02	1.046118565787487464e-01	1.362802291729767017e-02	1.899991984284232771e-02
2.652478618598701557e-02	-1.650949075824107229e-02	1.246970635670852610e-02	-6.415569229893559877e-02	3.210909899425186398e-02	-2.276511328202486528e-02	-4.363922757408712771e-02	-4.861701846539862037e-02	1.607884897060325030e-02	-2.631796793667751100e-02	7.299938262083226215e-02	2.109094733840761321e-02	-2.499365232231026343e-02	-5.355751570811891765e-02	-8.439314043907397700e-02	3.952811498430194165e-02	1.197039842034083358e-04	3.652478740995684231e-02	2.691129181978932361e-02	3.679754715812635218e-02	-2.636092539523001224e-02	1.797355085953557530e-01	1.741965720550500696e-01	4.785302635098099416e-02	-9.136829674198644613e-02	-6.426532871258491819e-02	6.682880681502252618e-03	-5.020187024615224702e-02	-2.295705482436753708e-02	-1.237492928328364217e-01	3.166150004297096920e-02	7.959090095471625659e-02	-7.606622122848918921e-02	-1.681336395107671869e-02	-1.701860371373003014e-02	-1.545906672668691528e-01	1.102112813966054511e-02	-3.471786683946538610e-02	-8.684285237732983220e-02	-4.038866191970039848e-02	1.121258161487323317e-02	3.201957508945789399e-02	1.963505079063121981e-06	-1.164245030059135426e-02	-5.556070527467876080e-02	-9.919714090377416971e-03	-4.765871919564317744e-02	7.410180743397071224e-02	8.356678177964506349e-02	-5.177665264197052475e-02	-9.534297699383627311e-02	9.046969150109251609e-03	-4.805984052898352316e-02	5.543847949725293905e-02	1.831548159290870975e-02	-8.493925666568337418e-02	4.821521440799548391e-02	8.551943968613603952e-02	1.556556563341948002e-02	5.576927020424444353e-02	3.300191545458714282e-03	-7.653636086368284519e-02	7.496398124928921325e-02	2.127211006078308028e-02	-6.026351484302787213e-03	-1.046150035535318989e-02	5.168426954037339677e-02	-1.028338661374606638e-02	4.568059705197287899e-03	-2.377400781766365878e-02	-3.754191727548339408e-02	-3.834662352063006319e-03	4.710705773255580153e-03	-3.232965277110449315e-02	1.147662558939336643e-02	1.061477504558512724e-01	2.621826472758212803e-02	8.059060614852983639e-02	-6.685532105408989456e-02	2.039122404405843345e-02	-4.458354968087414362e-03	1.112502261060599740e-01	-3.493081831630680256e-02	1.102875897837213293e-01	-3.903701985568799188e-02	-3.989270631372059291e-03	-7.990074802875504756e-02	-6.988336120037660741e-03	-2.435092963952165471e-02	-5.459362745508482273e-02	-6.394478273538635460e-02	4.545745649957535356e-02	3.441680587675341463e-02	-1.648717622158809779e-02	-3.445806640113791008e-02	-3.841450998597505107e-02	2.304897016489210540e-02	4.308233742748751594e-02	1.690197696089566423e-02	-9.904325054901312944e-03
1.639393202663249477e-02	2.950889779033510560e-02	-5.904336061095930704e-02	-4.638742336031245750e-02	1.797599124655730601e-02	2.531135445647450868e-02	-3.454229362396753905e-02	6.405572380374413566e-02	-2.688033262854113217e-02	-3.105455502497152243e-02	1.627926080090181735e-02	-6.133457830537046573e-02	-1.307372606889859734e-01	2.934416386720916856e-02	-1.291763627690276917e-01	-3.829915224885264285e-02	6.328744495553481619e-02	5.227270508424484985e-02	-5.968768100048561787e-02	5.824889304667176665e-03	-8.855968869521051168e-02	-5.298129142978567213e-02	-1.636192466519807015e-02	5.634204892757477268e-02	-1.028014105809079391e-02	-1.757192889855995963e-02	-6.440206262564392159e-02	-1.263526992067238487e-02	2.768291914174147300e-02	5.513337849258691942e-02	2.627232861325847629e-02	1.690744330897898245e-02	1.448858334815666601e-02	3.331544182434640483e-02	-2.410098561591916128e-02	-3.252074662759864981e-02	1.863200296577713203e-04	-3.815849484424232996e-02	1.021994838655540944e-01	5.535477219460784720e-02	-4.253558361040821190e-02	1.476462999339442361e-02	-1.000736361137967304e-03	1.639691212250597024e-02	-6.357163513095467899e-02	6.514946879591217155e-02	-9.354246177436520426e-02	6.440464281997441975e-02	1.950976571181130964e-02	-7.144246060241704610e-02	-1.041707148826215117e-02	-1.082963199361985929e-01	6.396534940390496103e-03	5.002482472432295130e-02	-5.265850592874726788e-02	-7.139569076130773684e-03	-1.564358042371048474e-01	-2.546667814014132517e-02	-8.387883661317031836e-02	7.395162040179549534e-02	4.456596414731656131e-02	-2.969255358911181142e-02	-8.354124585141483109e-03	-6.652078297512993912e-03	4.455694265841133456e-02	-6.658870381143122685e-02	6.204002333375753520e-02	4.252130451884077872e-02	9.279407828144141390e-02	-2.626602731972875124e-02	3.422956664686003375e-02	8.197250010644863139e-02	2.555676117971117031e-02	6.081694129964961698e-02	1.226278779785341597e-02	-1.268569373153038103e-02	1.035489971050833902e-01	9.844165101500511328e-02	-1.038879576309638120e-01	3.090477573966374236e-02	-7.769822059055599139e-02	2.582031681927381139e-02	-4.201066098092519352e-02	1.874690007185355820e-02	-2.228199062468479846e-02	1.830669355729941730e-02	2.428647231309285712e-02	-2.508172638473015956e-02	2.615440841365168981e-02	-7.179368962605054902e-03	8.207039814220383478e-02	6.167246159131112293e-02	1.537445965200194900e-02	3.713741672138987093e-02	-1.323044895467909710e-01	-4.110809066488090024e-02	-4.908936200324770689e-03	1.996385744855319958e-02	-8.424517901244887863e-02	-5.606539310256192232e-02
2.404989663724748164e-02	1.172204324148904027e-02	3.589489131808600020e-02	6.832813101314152981e-02	4.373147371236510428e-02	-2.445016498668834207e-02	2.982621259281222764e-02	-2.796057950077093443e-02	-1.050179758610649688e-02	1.110317444483280847e-01	9.584967633540764087e-02	5.262928965076607221e-03	3.116979259233164726e-02	-1.259669203177209498e-02	-6.218004308972210903e-02	-8.488145535356290960e-02	3.664506867924225558e-02	5.078687212049314698e-02	4.615135945889559804e-02	5.318735969289934556e-02	-2.311201182550138081e-02	6.254074430532785556e-02	1.018288999469560280e-01	1.552215452421215336e-01	3.623264205827522039e-02	3.935008574963922215e-03	-4.456574121564442145e-03	-1.212343386252795474e-02	-5.145064062829791257e-02	8.245441716370878471e-02	5.048878619291696096e-02	1.832203637726626672e-02	7.982507615954372027e-02	5.145306119871170120e-02	-6.878579303536080936e-02	6.012288117196292608e-02	1.484161618200256598e-02	-7.789773992612265829e-02	1.028168953362615726e-02	-7.828912214150619484e-03	-4.598187890795850385e-02	1.036857729163701142e-01	-1.529563064254377616e-02	1.857399718108088127e-02	-2.247040747393999616e-02	-4.098093611291076660e-02	-1.408482340109568944e-02	-4.222526815221655690e-03	2.032280012578932538e-01	-8.534134883675459360e-02	5.665226393750947415e-03	-2.866432488577139517e-02	-5.000098790658463049e-02	-3.054051620312974238e-02	-2.048113566342287320e-02	2.940073434694638610e-02	5.665458538802604915e-02	4.538479968530600983e-02	-3.116186142817515756e-02	1.314414492976475612e-01	1.359212490183328848e-01	7.475805772307279884e-02	-2.463703715996836199e-02	4.321495388248899894e-02	4.024089116208375005e-02	2.726275841028960242e-02	4.106802284232616285e-02	3.383440315100642165e-02	1.587605505924823829e-02	6.346418196972364312e-02	5.131768277408218365e-02	6.094259328918216062e-02	2.807641911732502906e-03	1.944666035736944756e-02	1.097532629810032412e-01	-1.582047230621629400e-02	6.615324385277010499e-02	-6.037169169844258665e-02	1.299330981836955765e-02	-9.669934169214276787e-02	-7.070547749058467280e-02	1.341823217440525906e-01	-4.965875624873806148e-04	7.055840902445933982e-02	-1.595152411567160589e-01	-1.814332500363306441e-02	-2.334228164087872107e-02	-3.720242854960955498e-02	-4.360876722169718632e-03	-4.057142560353194094e-02	1.150165921200922148e-01	3.175641427549635853e-02	-6.017359996734096550e-02	5.165011237765156776e-02	-1.015042314785211293e-02	9.636570310691386365e-02	9.193340910975313085e-02	-3.586520398850464447e-02	-4.831004997397575496e-02	7.637331614113794520e-02
-4.774600953413573462e-02	3.434287420577224192e-02	-6.014081087623398408e-02	1.502892576135905940e-02	4.430878735062896562e-02	1.837477768654784474e-02	-5.317010169027731881e-02	2.003492162686792977e-02	4.756262560219569335e-02	-2.891210061323082423e-03	3.660280658815021071e-02	1.178333670032826325e-01	8.535482420898617140e-02	9.948179876512895647e-02	-1.845401846342407601e-02	1.390033546252749178e-02	-4.519683331629439221e-03	3.591959814584266397e-03	-2.010801753004795578e-02	-7.471578243151059950e-02	2.751787670810403388e-02	-3.677815394019445620e-03	5.858853944680699616e-02	8.302904996291428363e-02	7.203578731965157300e-02	-5.752652095613744465e-02	-3.995852297633773614e-02	-5.906414962809122815e-02	-1.081950926303905380e-01	-4.721454965690137506e-02	-3.924104157194990145e-02	7.510007826529771502e-02	-1.640375827785432450e-01	3.244740876704122617e-02	-1.093748685580175385e-02	-3.762967354450980767e-02	2.080696699596058796e-02	2.499186265835803486e-02	-1.209441567214742004e-02	1.472801686169849522e-01	8.327403451301744822e-03	-1.484209090836838621e-02	-4.930086402516788147e-02	9.114820353728706956e-03	8.379909408778417335e-02	1.302703373132083065e-02	5.447161970837010453e-02	-5.863269800103868001e-02	-1.171351521560268227e-02	-2.049207322261235864e-02	-1.266740640520151728e-02	3.902600036985713616e-02	5.119825010898459983e-02	-1.312731465327327679e-02	-1.877793481564075384e-01	-7.756641525241381174e-02	-8.152555327507178540e-02	3.880060164897417008e-02	1.111802163064100762e-01	4.036062253084408274e-02	1.383467132473790162e-01	-7.465333639880634801e-03	6.735332472761866585e-02	2.606101452784823774e-02	4.284408811203054002e-02	-5.996761780355808896e-02	-9.637116918571228888e-03	8.916894088256525908e-02	8.696428964717783927e-02	-8.437943392149374611e-02	3.386203692972324097e-02	9.529329625776897239e-02	-1.628357897382116254e-02	1.530569256915791446e-02	4.603286652833612526e-03	9.327516427355280609e-03	3.486418294275778901e-02	-4.018150246012409943e-02	-1.122375030012690185e-02	-5.445949330340658923e-02	3.463869773308111272e-02	-2.348100487420782395e-02	1.233450974394665299e-02	2.308101347294906278e-02	-5.054728661358288272e-02	-2.743874751530617911e-02	4.829957243250695802e-03	7.430238626639673605e-02	-4.937201726080910069e-02	2.266485060695135056e-03	3.181399046561993876e-02	-1.074232934297994907e-01	-2.682432166350498699e-03	6.707000742275569249e-02	1.678149580616332057e-02	-2.426950232596754645e-02	6.192289608939259560e-02	1.429866768424459082e-02	1.715676373381593012e-02	7.300046674141956460e-02
-9.800062172370827690e-03	2.740996222684012953e-02	-1.156111583149885408e-01	4.193782082302189435e-02	-7.593382229476768053e-02	-6.906753354387637142e-03	-2.102414835090692449e-02	6.781168505279983050e-02	8.038868937482797350e-02	-3.088554258226414943e-03	1.132956667291941909e-02	-3.836953076913747485e-02	7.792731291401311725e-03	6.736435117716103871e-02	4.118950913350611504e-02	-4.949961304532057849e-02	-4.471461468373705284e-02	8.532705517029361142e-02	4.354027032172706063e-02	-1.115857827440209921e-01	-5.294277084667421696e-02	-1.138898706217690848e-01	-1.770976497576095751e-02	3.062077842207103912e-02	1.180996716099633886e-02	1.337119890252279689e-02	1.104214513301414458e-02	-2.274632651281743856e-02	-1.054710705618134570e-01	3.786149269419219945e-03	4.983052553094811932e-02	-7.162159293432958374e-02	-6.183929644976243062e-02	7.231192922506306242e-02	9.774657682728546404e-02	-3.805597470882007144e-02	-3.678842355440550133e-02	-3.640209589172740262e-02	-5.426690753835934633e-02	-1.631226708727986918e-02	4.444148630776074971e-02	-9.856729669476242683e-02	-1.366426901673246097e-01	1.336854873605227700e-01	-5.437793938330704596e-02	4.998287704157412803e-02	-1.314360906454953848e-01	6.384310468948618811e-02	-6.518201712875629217e-02	-8.146937883981800188e-02	-8.167424292677512299e-02	2.989861614469809664e-02	-6.953976770625130976e-02	-4.960739887126536241e-02	1.679001657741672690e-02	6.613807939972397854e-02	1.250072040730235839e-02	2.025449297173008076e-02	3.827581547561765413e-02	1.167909620026512385e-01	1.902938214208881734e-02	-8.338356000964089465e-02	1.088986579211701916e-01	8.899231172324156836e-02	-7.078655108901334148e-02	4.043613293413338833e-02	3.176242761555980731e-02	-1.938045326229368825e-03	-3.316133763788785965e-02	-8.758965779809600727e-02	-5.975249842493723235e-02	2.007576595440768719e-02	9.429479013295094525e-02	-8.467896786515234642e-02	9.646728609214702543e-02	3.817613749397089171e-03	7.287441552348374041e-02	9.875569787427415647e-02	-3.447613978253075834e-02	-1.520142306307489116e-02	-1.021356451521021336e-01	-2.495986142632882279e-02	8.201455893277213860e-02	1.236906276570250013e-01	4.566394695666184909e-03	-7.438060749056825058e-03	1.338662659489109862e-02	1.214222909277657206e-02	1.175425370936086233e-01	-4.888292609743715572e-02	-5.465907763575112571e-02	-4.924451975489300970e-02	-7.363989086972984321e-02	3.023689640460631989e-02	-2.505105692518063559e-02	-8.272992946455182128e-02	2.912246359956335157e-02	1.170400513509336007e-02	1.036201099536589176e-02	-1.797919231092586639e-02
5.358547319891450098e-03	-1.687748921583885967e-02	5.567604731707614940e-02	-7.979951966050752299e-02	-2.040168776662132019e-02	5.664412182684379305e-04	-1.427252888441822055e-02	8.480840727964297776e-02	-4.033205118578909315e-02	2.774861603667541643e-02	1.272825933834345787e-02	-2.655235920867687546e-02	-4.254308406194493020e-02	8.137302783355587765e-03	-7.273711509456677604e-02	1.577661467941899043e-01	1.862013364024156861e-02	9.345474779738557891e-02	8.558608884384703852e-02	1.223276219637196988e-01	-1.098607124498813536e-01	-2.424172468782571574e-02	-8.752366656032568859e-02	-5.867751734290382881e-03	-2.889750122070786770e-02	-9.763735650829544199e-02	3.721291050082032453e-02	5.659471251994748625e-02	-5.904428413960664812e-02	3.071573623065883274e-02	5.568435687663070982e-02	4.803914005469924614e-02	-8.435831630349378829e-02	1.440630901055114654e-01	1.241115642418947618e-01	-3.944383295850173443e-02	1.168324420274908897e-02	-7.865717766778618225e-02	2.904150067594957196e-02	9.882136811485265834e-03	2.479505619631078642e-02	-1.195298730894453487e-02	-9.153114146710715493e-02	-3.385553645279765905e-02	-4.356503506333418013e-02	-9.699035236375301225e-03	-3.809956450252587751e-02	5.924659227469768197e-02	5.552918059694187530e-02	2.948993739346838366e-02	1.603734325835578373e-02	1.055729552125123094e-01	1.142287416691365465e-01	-2.034741662011729096e-02	-8.309078782924227136e-02	2.011383558162388799e-02	2.153210320358058330e-02	5.149812660994142199e-02	-3.543356636159986778e-02	-3.854951378875286910e-02	2.432031427558568534e-02	7.322457275251828546e-02	-9.112811351732195628e-03	4.751531957390311978e-02	-3.321522757266777426e-02	-5.730549594003891967e-02	-3.801000302637575629e-02	-1.277873643005026649e-01	-4.493091018006674549e-03	4.477832107571183551e-02	-2.559478652088931563e-02	-2.457856610595016839e-02	-3.464931657566696927e-03	1.101919055538874703e-02	8.573157487307958569e-02	-5.071167610343757515e-02	2.536230236127618928e-02	1.478013868753544824e-03	5.194453427937173462e-02	-9.531589014654832936e-02	-2.268503007953357256e-02	-9.010408702533757863e-02	-5.646415402796398086e-02	2.631878232828754882e-02	9.330708356431653694e-02	-1.816318169479972169e-02	-3.637314444744384895e-02	-6.266890170770822444e-02	-9.127497869006351294e-02	-4.025630512351639767e-02	7.830496706468689783e-02	-1.272038072928227959e-01	-6.045766225431607570e-03	-1.573248269249206271e-02	-8.863428973328513205e-02	1.714957183620973227e-02	-1.472494698992129342e-02	-3.410110813193758389e-02	-3.716554909542587465e-02	-7.010920350566993142e-02
-6.789621674914102234e-02	-4.622369111327468555e-02	-8.706653790946911053e-02	3.812318115569298532e-02	3.199676218371598404e-03	-6.733988982521856015e-02	-1.619078523124502580e-02	5.865458344684396780e-02	1.136377178390679359e-02	1.066697862729847762e-01	-3.518131425849671534e-02	9.695310115984358268e-02	-4.579144404187664164e-02	1.547717571226637188e-02	-7.529370719562406000e-02	-5.173452810278005021e-02	1.138506642422866533e-01	1.419587550520985397e-01	1.702312312402481237e-02	5.478658487009033240e-02	6.591104826574885334e-03	1.037818302000737825e-01	-1.093117860373753469e-01	1.164955570131589457e-01	-1.027632318412359108e-01	7.760378858934235957e-02	9.911053819810028420e-02	-8.971334455702549560e-02	-5.862759682596678512e-02	-9.182042155171031908e-03	4.673705919816700111e-02	-1.150034183663740661e-01	-1.503306621705713386e-02	4.149593538558844774e-02	4.886176620216907407e-02	2.700489527695783959e-02	6.517022994473866022e-03	-2.545838008741136554e-02	-3.842496587986782286e-02	1.559374869804499020e-01	-5.865816279719857085e-02	2.669390558038566008e-02	-2.872801398398208694e-02	1.193805215104237760e-02	1.208512844452726449e-02	-5.186766534198711948e-02	-2.278579874370390695e-02	-1.158163263140661939e-02	5.950668338132562851e-02	-3.573370003837788439e-02	4.163328919472666402e-03	1.809483557531370865e-03	9.930488739047201030e-02	1.156899005805686331e-01	-8.989441999824725194e-02	-5.789780849570876076e-02	-1.057958116106642588e-01	-1.714677888023876176e-02	-1.393188604908508071e-02	-2.708420838846481438e-02	5.134924792879027450e-02	-5.870266179857797084e-02	-4.523429036804532330e-03	-1.026288369031551628e-01	3.372336011614265189e-02	-6.972851060640310183e-02	-2.200426422096200471e-02	2.980310049337318509e-02	-5.138733986130625958e-02	5.097200006971491781e-02	-1.151476961978784713e-02	3.700283528216333218e-02	-8.979215192406032886e-02	-8.318790353401256388e-02	3.898558778916560996e-02	-3.371310283458821278e-02	-9.781021584079695186e-03	-1.575962050762848288e-02	-5.895150276059641509e-02	-3.371016742880415112e-02	3.020185665165375094e-02	-4.116685880053647106e-02	-5.120350399858551033e-02	-2.671116205154946271e-03	-4.552025440082671515e-02	-1.132154334103421464e-02	-1.195102715673068347e-02	-1.092430016281837474e-01	7.652404927943454171e-02	-2.530925301536614529e-03	3.861381048269117711e-02	-7.979313596827265764e-02	-1.198225839219670130e-02	3.349192800645275740e-03	-9.580109372236370047e-02	-1.365862537475702639e-02	-6.175802027562025259e-02	1.569295469662769782e-01	5.730330172178814234e-03	4.404592712836818968e-02
3.928603848866026732e-02	-4.957151003282956464e-02	-1.970536184476089775e-02	-1.688669724005952555e-01	-5.920397631878510092e-02	3.400043434196004660e-02	-2.797839969021655854e-02	-1.103239423765093596e-01	-1.074112843402106887e-01	5.395373082522812030e-02	-9.232673543893485379e-02	2.464368577803786528e-02	-1.320087625156207700e-01	6.193899888774508783e-02	3.941639320106330585e-03	5.980046567519885226e-02	-9.471354338957993155e-03	5.242457004767522855e-02	2.051926277201598578e-02	-7.042509675626797139e-02	-2.231543172901031928e-03	-2.835850773667566646e-02	-7.867078422343894151e-02	-4.513752759162474593e-02	5.903484688201562913e-02	3.056431817612548577e-02	-4.415393839026079958e-02	-1.376961441147603882e-01	1.636736323404620191e-02	5.776770724230052140e-02	2.753826646387477414e-02	-4.865563048335851647e-03	-8.859136598186587164e-02	-2.016050257662925418e-03	-4.922103010254736538e-02	-5.622478132883357294e-02	2.012153925527267878e-02	-3.916425858543799710e-02	-1.371872866152647544e-03	6.256000194756690391e-02	-8.497734636437684341e-02	2.781225763888527450e-02	1.884701286608599438e-02	3.532826068215341123e-03	-1.236528427169811400e-01	-6.970888394511400021e-02	1.058708614955682914e-01	5.526404466190926179e-02	-5.186264955615371708e-02	-2.446976927547832997e-02	-2.331247427253298199e-02	9.614010452101758031e-03	7.194055276132768975e-03	5.499359408116275688e-02	-1.268345617074448893e-02	-5.169800901677324562e-02	2.048875315854649382e-02	-3.998708500594372328e-02	2.447070120895203718e-02	1.151479756917062752e-01	4.044775013508938172e-02	-1.240120638771543965e-01	3.415866847605809886e-02	2.897445800301044413e-02	-6.304157292781205346e-02	2.024619000313424705e-02	7.450563863681761850e-03	-7.223744214159635857e-02	4.259289567908375318e-02	-1.667384708722195047e-02	-1.282551640381591473e-01	3.634039124141087013e-02	-1.045849255408052292e-01	2.225646349379440184e-02	-4.740498526510916744e-02	6.855832520772529338e-03	3.172368916211293355e-02	-7.973000162627794096e-02	2.381732697855614214e-02	3.624444338043256858e-02	-8.440440508005019049e-02	-4.446268174302846210e-02	-6.067842088492452629e-02	-1.728300882320165169e-02	5.103238175544955180e-02	-9.960008675168642578e-03	6.130362774748846638e-02	-2.582775011027626036e-02	5.500610847875150866e-02	-2.814677034853128521e-02	1.360956349001718338e-03	-1.112040611468966683e-01	4.531319918367302663e-02	7.536100271367644939e-03	-7.001850950816497499e-02	-6.446113972483560883e-02	5.860951730158758810e-02	4.142633042275115779e-02	-6.736837810951241956e-02	9.284184933591257960e-02
2.127366307986349250e-02	-1.632300573087480666e-02	8.087975144132235339e-02	-2.390399596008214306e-02	-5.940074110160417295e-03	-2.188701863642471615e-02	1.138622326926519712e-01	1.398930586728226455e-01	3.055977806911714181e-02	-3.247738541016857629e-03	-2.606494428438831112e-02	4.798907313006692960e-02	-2.404345076348566104e-02	-7.852424902098831261e-02	3.496776070189506341e-02	-1.974666913259626178e-02	5.450495969107603533e-02	2.496440786794452624e-02	-8.077096706286386553e-04	-7.236066066973169397e-02	-5.638485928636064598e-02	-2.603185164204135232e-02	-7.651463455659624456e-03	4.091563618199110103e-02	-2.501025728734433684e-02	-6.245498654113369047e-02	3.957996359881568033e-02	-1.977266048760187300e-02	1.290755602018294618e-02	1.309089370507444255e-02	-5.551285841754216577e-02	-2.633542052800791344e-02	4.335811036770938903e-02	1.205256591924303705e-01	3.048217557071431633e-02	-4.934975241102034643e-02	1.020730200379597191e-01	-9.640527523861777692e-02	-5.191994289183873151e-02	8.294062850211299243e-02	-1.955156823023998167e-02	1.009104629818204923e-01	-1.068000377588156219e-01	-1.692086293769140201e-02	1.327449050292130173e-02	-7.045395450661434689e-03	-8.146460909193655592e-03	1.250341149420510292e-02	-1.899596398323633376e-02	4.915199512413853666e-02	-3.315305514404578990e-02	-7.147990454653341263e-02	-1.609528248654231580e-02	-1.385495190118034847e-01	2.875214400342098603e-02	1.469119772558962096e-02	-3.590902712315647421e-02	-3.282692148801988341e-02	-1.108186683525974742e-01	-8.314349535532035429e-02	7.273252210256585248e-02	-2.045632203988584363e-02	1.569269712914297260e-02	-8.383463322179738469e-04	1.314649503138853870e-02	-1.084311709436153459e-01	4.386137218029409479e-02	1.043049572788605842e-02	8.449252780326808876e-02	2.995594026986660489e-04	-7.936759361847128824e-02	5.157709721962517452e-02	-7.994848666753065491e-02	5.279868953173722651e-02	5.356199343935542923e-02	-5.379136602129744316e-02	4.889123032534008900e-02	1.007510751323999060e-01	-6.254284826018660648e-02	7.475421246561900213e-02	5.323609563458904514e-03	7.237933259705237043e-02	1.712583751309187940e-02	3.211297612548253549e-02	8.066295631904098207e-02	6.804715837062268700e-03	-2.074204194768242485e-02	4.063687466727992914e-03	5.080399384387376815e-02	-2.238308221646563134e-03	-2.425279326459173559e-02	-2.222676248643748811e-02	3.687368932719312098e-02	2.226082635482127051e-02	-2.201776069067326591e-02	-4.359368355408008849e-02	1.117967514278355168e-01	5.003992452386748363e-02	1.756665810264039507e-02	2.097174674443524900e-02
6.207237123886178570e-02	-5.231217416962987386e-03	-2.786787932282276323e-02	3.195625171622403643e-02	-7.780123955387755787e-03	-3.628880984946232340e-03	-8.997836359607792878e-02	1.610184627196284456e-03	-9.538508183682684050e-02	-4.632999910942578459e-02	-2.735194977598317742e-02	1.332232018546493091e-01	3.972809986489084927e-02	3.047716048539227118e-02	-1.213469293886986107e-02	7.818904259985198779e-02	-1.070510663177775823e-01	-3.887824077953584700e-02	-8.543495733747328430e-03	-3.862812002393373884e-02	-7.999591136192996110e-02	-1.266056230585097669e-02	3.002072378264428881e-02	7.541693019947266763e-02	-1.196525559163586806e-02	1.526389069054606392e-03	1.028078390047465138e-02	-1.681311136107573878e-01	2.051604182395314752e-02	-1.283158037350337066e-01	2.030100737691446430e-02	4.148467792566947615e-02	2.882854601339383468e-02	-2.705249343540152077e-02	3.773240496690725282e-02	2.316668085264861690e-02	9.193587360631653993e-02	-9.198729199391689204e-02	-5.148463458411493138e-02	2.826645642921695595e-02	-1.241165717581247177e-02	5.335299336992909564e-02	1.430972975542766507e-02	3.301077720958555534e-02	1.870993148121395666e-02	-7.977668569419432004e-03	-7.498160028116133968e-02	4.532257110842165954e-02	-1.969717700373969232e-02	7.093078319539469767e-02	6.387678641306909766e-02	-4.043900578843704491e-02	-6.001208836251205499e-04	-7.340255844585001632e-02	-1.561518250751254416e-02	6.915619422488233914e-02	-1.009673028791591848e-02	6.160056416899382936e-02	6.409749669394620986e-02	2.784770770923003166e-02	9.795879344755686891e-02	-3.835294819183013987e-02	1.271238924327310407e-02	-8.016345316062563342e-02	-4.464960315724803702e-02	-2.991938948134373333e-02	3.857901922902585989e-02	-6.437836464577936790e-02	4.209020402171145814e-02	-9.847918249741464958e-02	-4.668543679457855949e-02	-1.584905100334505629e-02	8.639682752352269290e-02	-4.838425036421475228e-02	2.674205160905505571e-02	4.036789324502036702e-02	-1.207562425606652397e-02	1.649925348106437081e-02	-1.580682204961266976e-02	-7.630079444439481773e-02	-4.775546276619649366e-02	5.484268639162805797e-02	-3.925765340397601583e-02	4.835015859268229632e-02	-9.470976136537297835e-03	-5.287694422421190116e-02	-1.656504181117076507e-02	1.161807763690900219e-01	-8.761271707367132913e-03	-3.593746126121426937e-02	5.415223586292609859e-02	-3.043050106787400719e-02	-7.536922679252523738e-02	4.396780076453304931e-02	-9.050022985609587622e-02	7.368675366823154715e-02	9.657985005523071764e-02	6.581523509308150055e-02	-5.181524582266782385e-03	-3.095929405081848662e-02
4.096255878603775186e-02	-4.469231027135077416e-02	4.330211617084678277e-02	-9.263921515800242756e-02	8.958887305953895652e-02	-3.588889297492015885e-03	-5.002438410472594132e-02	-5.213922103825639753e-02	8.463746000432061795e-03	3.225011257021064004e-02	5.394002980592903229e-02	1.704382970822106852e-02	-5.740118285770106493e-02	2.199181807727845425e-02	-1.019583538295200792e-01	7.864905263458385910e-04	-2.967631248133350066e-02	1.063908807762693337e-01	2.555314911999880673e-02	-1.821179742392817560e-02	-3.477992226392256220e-02	7.276509232464563326e-02	-4.168046474221975134e-02	1.324984675662026559e-02	2.583849332151464534e-02	-6.328643898029465142e-02	4.660032041899736521e-02	-3.091548203484689988e-03	7.460282166271023363e-02	-8.083834509470212357e-03	1.592594062461277216e-01	3.380551704740322738e-02	6.061433902349101441e-03	-6.566740868419469745e-02	2.054112868128244937e-02	-9.070079744425087187e-02	1.772601781451339092e-02	-2.081673113403326170e-02	4.849260982436881529e-02	-8.065264900308528190e-03	-1.244608508808164003e-02	-3.106478699138274027e-02	-3.262011535858422295e-02	-1.216758965851252698e-02	9.894196827008489015e-02	-6.771932925471287057e-02	-9.015124797797476053e-02	-2.135599570754463314e-02	8.247978178645963554e-02	-1.181537540616786341e-01	8.410056581525400532e-02	-5.125745149029187903e-02	-6.705360143951463736e-02	-6.590419323803889395e-02	5.423195106526510281e-03	-5.454129054583699981e-02	-1.868371077655423332e-02	8.655533119735931216e-03	-1.457416590479557461e-01	1.499959578168111839e-02	5.545584168681209208e-02	-1.006931063592386294e-01	-7.980467436078157728e-02	1.845432881817503281e-03	8.749170461915962982e-02	7.313162868903315406e-02	1.063340435109279419e-01	-5.151841315356240486e-02	6.533791219533879868e-02	-3.729214770442024207e-02	2.134964527931631009e-02	1.944714732444253677e-02	-1.155871720377790457e-01	2.886141087352855558e-02	-8.746362307465338493e-02	1.239230216983977922e-01	1.858435651820642409e-01	-3.583942339432251434e-02	-9.185544433036672840e-03	-1.837731486850518667e-02	1.816654691130921082e-02	4.270858510109006023e-02	-9.905119618766665412e-02	-5.469343996882124886e-02	3.126342728880329019e-02	2.229007408369777440e-02	-5.035003072095847049e-02	-8.253051552676034242e-02	8.578398738040738866e-03	-1.461169849658380815e-02	8.810982149949338205e-02	5.219841829723806392e-02	4.522591410696615022e-02	4.135257826649348101e-02	-1.443491963820063735e-02	5.242287064198655061e-02	-7.245737621675255036e-03	-6.604147480535224601e-02	2.006685384872084615e-02	3.516625535135839420e-02
